{"state_dim": 2, "n_actions": 3, "height": 16, "ndim": 2, "log_Z": 3.8042104244232178, "layers": [{"type": "linear", "W": [[0.4051015079021454, 0.4973107874393463], [-0.19249987602233887, 0.7262230515480042], [-0.21661897003650665, 0.09484738111495972], [-0.48186826705932617, 0.3489641845226288], [0.546991765499115, -0.6145325303077698], [0.6364434361457825, 0.09853038936853409], [0.44397851824760437, 0.02302416041493416], [0.40887895226478577, -0.11317580193281174], [0.32843658328056335, -0.1485455483198166], [-0.41481712460517883, 0.12945310771465302], [-0.16507835686206818, 0.05387984961271286], [-0.3829171359539032, 0.4687233567237854], [-0.4331730604171753, -0.16291393339633942], [-0.08988122642040253, -0.3228205144405365], [-0.08108775317668915, -0.8128083944320679], [0.7170168161392212, -0.5456684827804565], [0.3905075788497925, -0.1047312542796135], [-0.32781216502189636, 0.35902464389801025], [-0.002899808343499899, 0.48731815814971924], [0.12951414287090302, -0.14625851809978485], [0.2422982007265091, -0.1459442377090454], [0.16421902179718018, 0.504006564617157], [0.3678450584411621, -0.37163984775543213], [0.465926855802536, 0.1667305827140808], [0.4623159170150757, -0.363610178232193], [-0.30659446120262146, 0.1101418063044548], [-0.5305896401405334, 0.6557284593582153], [0.18369558453559875, 0.29984667897224426], [0.25530576705932617, 0.01372548844665289], [0.6490231156349182, -0.46517130732536316], [0.1793469935655594, -0.37635543942451477], [0.1611098200082779, -0.3177092373371124], [0.1570502370595932, -0.2419697791337967], [0.6210120916366577, -0.4575812816619873], [-0.24418938159942627, -0.22738352417945862], [0.5841653943061829, 0.1761222779750824], [0.7919145822525024, -0.5192791819572449], [-0.6219183802604675, -0.4703536033630371], [-0.5169175267219543, 0.2883595824241638], [0.1700010448694229, 0.5797343254089355], [-0.27267712354660034, -0.3917168974876404], [0.39861002564430237, -0.3489909768104553], [0.46374738216400146, -0.19055615365505219], [0.5770965218544006, -0.4258453845977783], [-0.48505082726478577, 0.08238262683153152], [0.1808696985244751, -0.1534252166748047], [0.3489689528942108, 0.3533625602722168], [-0.3152835965156555, -0.15719138085842133], [0.7320621013641357, -0.2011355757713318], [-0.32002711296081543, -0.6870543360710144], [-0.34907710552215576, 0.27741608023643494], [-0.2899598777294159, -0.6453949213027954], [0.16275884211063385, -0.35189518332481384], [-0.8765684962272644, -0.45201197266578674], [-0.6083200573921204, -0.43379080295562744], [0.5659253597259521, -0.03866671398282051], [0.3177407383918762, -0.5307998657226562], [-0.6366869211196899, -0.34719040989875793], [0.08458253741264343, -0.6691866517066956], [-0.4815008342266083, -0.5100650191307068], [-0.03733194246888161, -0.30601897835731506], [-0.07904807478189468, -0.5146510601043701], [-0.26714226603507996, -0.20887944102287292], [-0.5196781754493713, -0.7788735032081604], [0.6264309287071228, -0.1784280389547348], [0.5776380300521851, 0.16981856524944305], [-0.6630969047546387, 0.43178924918174744], [-0.2335858792066574, -0.2822752594947815], [-0.36347517371177673, -0.47536754608154297], [0.26143190264701843, -0.04649214819073677], [0.39658787846565247, -0.46175041794776917], [0.6344783306121826, -0.4629814922809601], [-0.02850734069943428, 0.2586352527141571], [0.25829067826271057, 0.4862298369407654], [0.5949217677116394, -0.6377403736114502], [0.07528296113014221, -0.3573898375034332], [0.003872636938467622, -0.4753097593784332], [0.7337676286697388, -0.4546797573566437], [0.2729644179344177, 0.0950169563293457], [0.3349200487136841, -0.28189292550086975], [0.5861279964447021, 0.08307487517595291], [-0.021241120994091034, -0.6918594241142273], [0.3321320414543152, -0.09840869158506393], [-0.40182560682296753, 0.6012779474258423], [0.3239195644855499, -0.2977808117866516], [-0.25544390082359314, 0.12254343926906586], [0.4050363004207611, -0.1650790274143219], [-0.3273051083087921, -0.16902394592761993], [-0.43412327766418457, 0.4095298647880554], [0.7567232251167297, -0.5048940181732178], [0.05810532346367836, 0.2717743217945099], [0.3439714312553406, -0.10329093039035797], [0.3431360721588135, 0.38264667987823486], [0.20272256433963776, -0.23840992152690887], [-0.27649280428886414, -0.028541002422571182], [-0.1850971132516861, -0.274934321641922], [0.359821617603302, 0.47617143392562866], [-0.11706431210041046, -0.21559660136699677], [0.08106458932161331, 0.023896431550383568], [0.04657772555947304, 0.051291435956954956], [-0.8494459390640259, -0.40479445457458496], [0.34262239933013916, 0.044176798313856125], [0.1148940920829773, -0.3085990846157074], [-0.47725340723991394, -0.6205446124076843], [-0.1654621958732605, 0.4084169566631317], [0.3939942717552185, 0.2596900761127472], [-0.4584655463695526, -0.26227718591690063], [-0.25891605019569397, 0.6314430236816406], [0.061704739928245544, -0.22615748643875122], [0.2514183223247528, -0.3109302520751953], [-0.5266187191009521, 0.5185160040855408], [-0.16923171281814575, 0.0663456991314888], [-0.6390678882598877, 0.5792735815048218], [0.35366952419281006, 0.0727025493979454], [-0.5882555246353149, -0.7409377694129944], [-0.626704216003418, 0.4818069040775299], [0.2590620815753937, 0.5396568179130554], [0.30812570452690125, 0.13540570437908173], [0.06552370637655258, -0.45313557982444763], [-0.47078362107276917, -0.5189367532730103], [0.2820063531398773, -0.3543092608451843], [-0.18357700109481812, -0.3608780801296234], [-0.22239330410957336, -0.5225847959518433], [-0.32824644446372986, 0.38393107056617737], [-0.3147575259208679, 0.3158600926399231], [-0.08431629836559296, -0.31781309843063354], [-0.29634982347488403, -0.44679751992225647], [-0.242115780711174, -0.6076727509498596]], "b": [0.25448697805404663, -0.42820441722869873, 0.32882222533226013, 0.2276371568441391, 0.4368101954460144, -0.544661283493042, 0.4354092478752136, -0.3391920030117035, 0.035906001925468445, 0.6313828229904175, -0.029799684882164, 0.006157329306006432, -0.008991336449980736, -0.4962511658668518, 0.308058500289917, -0.6625230312347412, 0.23353342711925507, 0.4604823887348175, 0.597227156162262, -0.11051467806100845, -0.565130889415741, -0.01019485853612423, 0.3692348301410675, -0.6803180575370789, -0.09492374211549759, -0.06934203207492828, -0.05523929372429848, -0.3608512878417969, -0.2876225709915161, -0.1546037346124649, -0.5693262219429016, 0.5425422191619873, 0.5306839346885681, -0.031525880098342896, -0.02220800518989563, -0.32088351249694824, -0.5840489268302917, -0.6200885772705078, 0.2688162326812744, -0.4453319311141968, -0.38069552183151245, 0.01428268477320671, -0.20784014463424683, -0.09170611947774887, 0.08729250729084015, -0.1636427491903305, -0.3315218985080719, -0.05950884893536568, -0.5482880473136902, 0.6170223355293274, -0.238596573472023, 0.22006654739379883, -0.13081596791744232, 0.2967502474784851, 0.7243433594703674, 0.14817029237747192, -0.491840124130249, 0.3132556974887848, 0.671064555644989, 0.2864529490470886, 0.46464934945106506, 0.6917616128921509, -0.006712215021252632, 0.20880822837352753, -0.4640365540981293, -0.09702859073877335, 0.484799861907959, 0.3940187096595764, -0.16596587002277374, -0.5097237825393677, -0.3640492260456085, -0.6532648205757141, -0.4147093594074249, -0.18902160227298737, 0.4321953356266022, 0.08370354771614075, -0.500092089176178, -0.5392657518386841, 0.22363239526748657, -0.4329921007156372, -0.07296325266361237, 0.31741514801979065, -0.3286379277706146, -0.09738297015428543, 0.026885276660323143, -0.030962079763412476, -0.3871258795261383, -0.5707510113716125, -0.4513496458530426, -0.24989573657512665, 0.5975545644760132, -0.15949323773384094, -0.49683117866516113, 0.08933782577514648, 0.1476188749074936, 0.37077754735946655, 0.40881839394569397, 0.38087403774261475, -0.6552541255950928, -0.0780324786901474, 0.4101361036300659, -0.1838659793138504, -0.3175969421863556, 0.7143521308898926, -0.1448994278907776, -0.4685189723968506, -0.470701664686203, -0.025758858770132065, 0.2966160178184509, 0.11912083625793457, 0.12989619374275208, -0.3447575867176056, -0.6123939156532288, -0.11456844210624695, 0.6472882032394409, 0.3918643593788147, -0.48186078667640686, -0.06764673441648483, -0.4608832597732544, -0.17785020172595978, 0.14514169096946716, 0.4287209212779999, 0.5854216814041138, -0.49117517471313477, 0.3474045991897583, -0.3322969377040863, 0.25585559010505676, 0.6673646569252014]}, {"type": "leaky_relu", "slope": 0.01}, {"type": "linear", "W": [[-0.020151061937212944, 0.03524963557720184, -0.12418853491544724, -0.10177509486675262, 0.05378459021449089, 0.03371608257293701, -0.03869832307100296, -0.018585218116641045, 0.05214488506317139, -0.008485225029289722, 0.03186486288905144, -0.12659019231796265, -0.06318444013595581, 0.042688485234975815, -0.02775942161679268, 0.022925930097699165, -0.04163185507059097, 0.009425601921975613, -0.02897188626229763, 0.047255851328372955, 0.025300784036517143, -0.0996667742729187, -0.09020879119634628, 0.005060833878815174, 0.08920683711767197, 0.04035818576812744, -0.11350912600755692, -0.04166532680392265, 0.14214321970939636, 0.17905613780021667, 0.10373860597610474, -0.06558188050985336, -0.0619305744767189, 0.15654125809669495, -0.05098501592874527, -0.021584583446383476, 0.05979694426059723, -0.008414103649556637, -0.16804713010787964, 0.04190073907375336, 0.09773140400648117, 0.13024266064167023, 0.08634187281131744, -0.021225610747933388, -0.1158624216914177, 0.09555560350418091, 0.05705220252275467, 0.006077637430280447, 0.04521942511200905, 0.02912636287510395, -0.06352093815803528, 0.027673624455928802, 0.0038077756762504578, -0.10750964283943176, -0.05469540134072304, 0.0007101220544427633, 0.01944018341600895, -0.007468948140740395, -0.0018480070866644382, 0.0029883317183703184, 0.06238846480846405, -0.059025704860687256, -0.05456981435418129, 0.030807700008153915, 0.17405080795288086, -0.034583307802677155, -0.07930776476860046, -0.10005125403404236, -0.051479510962963104, 0.06507541239261627, 0.07579457014799118, 0.07793007791042328, 0.0014418901409953833, 0.09567219018936157, 0.01622185669839382, -0.038301557302474976, 0.031813979148864746, 0.08258024603128433, 0.008965222164988518, -0.013356110081076622, 0.06072619557380676, -0.0549478754401207, -0.005708424840122461, -0.10439798980951309, 0.13669706881046295, 0.08400548249483109, 0.15559916198253632, 0.07897397130727768, 0.08048785477876663, 0.04619034379720688, -0.08279144018888474, 0.14576402306556702, -0.043324969708919525, -0.059316236525774, -0.10002514719963074, 4.937702033203095e-05, 0.019131211563944817, -0.062491752207279205, -0.014690435491502285, 1.32044178826618e-05, -0.12647832930088043, -0.03815694525837898, 0.08220981061458588, -0.045812852680683136, -0.03978980705142021, 0.10722461342811584, 0.049378376454114914, -0.003666239557787776, 0.004102170001715422, 0.038495391607284546, -0.10140638053417206, 0.02693070098757744, 0.042206551879644394, 0.08842895179986954, -0.07659304887056351, -0.1133025661110878, -0.020609797909855843, -0.012551681138575077, 0.05440545454621315, 0.08491706103086472, 0.12293817102909088, 0.025210531428456306, -0.06114163622260094, -0.03030078485608101, -0.06868842244148254, 0.014345971867442131, -0.05088898167014122, -0.09030923992395401], [0.038454536348581314, -0.0698203593492508, -0.02274547703564167, -0.01703900471329689, 0.06440922617912292, -0.08149074763059616, 0.0754304751753807, -0.06831582635641098, -0.005731222685426474, 0.0941612496972084, -0.0007854665745981038, 0.11901085078716278, 0.05968736112117767, -0.09939095377922058, 0.11240950226783752, -0.036818332970142365, 0.026412826031446457, 0.05167462304234505, 0.050608109682798386, -0.07281458377838135, -0.04545995220541954, 0.10008993744850159, 0.05433715879917145, -0.03834238275885582, -0.3006630539894104, -0.0005797882913611829, -0.012501808814704418, 0.12119094282388687, -0.09239406138658524, -0.23506085574626923, -0.05032679811120033, 0.026651205494999886, 0.09729887545108795, -0.16569769382476807, 0.0489470399916172, 0.04387947916984558, 0.014003083109855652, -0.044461026787757874, 0.04464038461446762, 0.07950796186923981, -0.04047150909900665, -0.1354197859764099, -0.16623179614543915, -0.3220728635787964, 0.12379816174507141, -0.028235428035259247, 0.028199544176459312, 0.08068867772817612, -0.12658461928367615, 0.14731450378894806, 0.009883965365588665, 0.015090130269527435, -0.08984673023223877, 0.1266060173511505, -0.0005984270828776062, -0.045573100447654724, -0.11947422474622726, 0.03249678760766983, -0.05257381871342659, 0.03648652508854866, -0.043358419090509415, 0.04438307508826256, 0.062106966972351074, 0.07711045444011688, -0.15868939459323883, 0.009736460633575916, 0.016845759004354477, 0.020475303754210472, 0.04234776273369789, -0.1137060597538948, -0.03208928927779198, 0.029044851660728455, 0.0029268304351717234, 0.008904161863029003, -0.0651259794831276, 0.03145537152886391, -0.021447133272886276, -0.03843921795487404, 0.04567588493227959, 0.03907226398587227, -0.10164427757263184, 0.06134581193327904, -0.09173983335494995, -0.011402548290789127, -0.24643419682979584, -0.07354369014501572, 0.005544469226151705, -0.005681611131876707, -0.05044124275445938, -0.2382614016532898, -0.059817999601364136, -0.15087273716926575, 0.022136030718684196, -0.09285660833120346, -0.014010563492774963, 0.027029674500226974, 0.08417773246765137, 0.10113213211297989, 0.03070276603102684, -0.03930988907814026, 0.05413772538304329, 0.05373983830213547, 0.004722738638520241, 0.07496572285890579, 0.020990241318941116, -0.07186837494373322, -0.04222841560840607, 0.11533975601196289, -0.02135627157986164, -0.06952347606420517, 0.009905162267386913, -0.06598445773124695, -0.0006875632097944617, -0.06621163338422775, 0.06691770255565643, 0.10050574690103531, -0.06551569700241089, -0.008453736081719398, -0.08762998133897781, -0.05232951417565346, -0.05002458766102791, 0.12339678406715393, 0.0187058225274086, -0.041806530207395554, -0.040192101150751114, -0.06797993183135986, 0.013033660128712654, 0.031044837087392807], [0.015429537743330002, -0.10257870703935623, 0.07137683033943176, 0.04923928156495094, -0.0949711799621582, -0.05005743354558945, 0.024048928171396255, -0.04485676437616348, -0.020644444972276688, -0.04578700289130211, 0.0821504220366478, -0.03737127408385277, 0.07867888361215591, 0.010271167382597923, 0.0029878446366637945, 0.07372157275676727, -0.0226313304156065, -0.05530307814478874, -0.01810063049197197, 0.07820665091276169, -0.060290295630693436, 0.01786644011735916, -0.09418661892414093, 0.05378437042236328, 0.007750585675239563, 0.013696043752133846, 0.02131868340075016, -0.00892905704677105, 0.05561821162700653, -0.10432429611682892, -0.008043648675084114, 0.03220231086015701, 0.08107458055019379, 0.10089163482189178, -0.0631183609366417, 0.11475026607513428, -0.014869452454149723, -0.016004960983991623, -0.08667982369661331, -0.009672005660831928, 0.0656934306025505, 0.03992122411727905, -0.07377814501523972, 0.017375953495502472, -0.04134112596511841, 0.08347583562135696, -0.05298943072557449, -0.019540373235940933, -0.09494232386350632, -0.04552179202437401, 0.03614773973822594, 0.06993575394153595, 0.019839148968458176, 0.06245400756597519, 0.007880096323788166, 0.04395516961812973, 0.07574468851089478, 0.060252245515584946, -0.05789924040436745, 0.06601481884717941, 0.045919716358184814, -0.0492662712931633, -0.03409102186560631, -0.09049998223781586, -0.00721964193508029, -0.012026170268654823, 0.0321614108979702, 0.019236622378230095, -0.07153289020061493, 0.03070256859064102, -0.0017045707209035754, 0.045404281467199326, 0.05925532057881355, -0.044142983853816986, 0.07284712046384811, 0.058222029358148575, 0.03836013376712799, -0.0766092911362648, -0.03738828003406525, -0.019801685586571693, 0.022155886515975, 0.03594828397035599, 0.03835542872548103, 0.06945104151964188, 0.011541537940502167, 0.04067329317331314, 0.036496441811323166, -0.06916797161102295, -0.07753206789493561, -0.08784475177526474, 0.055686164647340775, -0.08928785473108292, -0.08356182277202606, 0.03790693357586861, 0.03770645707845688, 0.06350330263376236, -0.07039101421833038, -0.07278779149055481, 0.051381126046180725, 0.06459274888038635, 0.03932282328605652, 0.017485255375504494, 0.03434912487864494, 0.07358767837285995, -0.07936367392539978, -0.029775405302643776, 0.06663454324007034, -0.05217607691884041, -0.05649682879447937, 0.05164676532149315, 0.02429567277431488, 0.03646652400493622, -0.030303893610835075, -0.0036444426514208317, 0.06886304169893265, -0.05731512978672981, 0.010399335995316505, 0.10032466799020767, -0.057226311415433884, 0.08847709000110626, -0.055209219455718994, -0.030268076807260513, -0.03317336365580559, -0.04936855286359787, -0.09305807948112488, 0.0553763210773468, 0.009458903223276138, -0.09200980514287949], [-0.07262922823429108, 0.10413211584091187, 0.017100689932703972, 0.0185878723859787, -0.06988634169101715, -0.07083478569984436, -0.029770920053124428, -0.005607302300632, -0.07780621200799942, -0.00967173557728529, 0.024577248841524124, -0.02163984440267086, 0.02835812047123909, -0.018615202978253365, 0.0034407642669975758, 0.05014030262827873, -0.06323641538619995, -0.10418481379747391, 0.02978605031967163, 0.03668295592069626, -0.02816259115934372, 0.06979221105575562, -0.05679867044091225, 0.0769394114613533, 0.12833426892757416, -0.05737849324941635, 0.056372564285993576, -0.12103291600942612, -0.03218328207731247, 0.08389366418123245, -0.04299396276473999, 0.069364532828331, -0.034663230180740356, 0.1212383508682251, -0.06408379971981049, 0.03354158625006676, -0.024656616151332855, -0.05101868510246277, -0.003336658701300621, 0.019518984481692314, 0.09256523847579956, 0.0536876805126667, -0.005200576968491077, 0.08896083384752274, 0.0033520995639264584, 0.045590467751026154, 0.04045265540480614, -0.0039634485729038715, 0.06620918214321136, 0.04605085775256157, -0.006323986686766148, 0.04315120354294777, 0.059059228748083115, 0.04064403846859932, -0.06926514208316803, -0.05985177680850029, -0.009011518210172653, -0.015564845874905586, 0.03576114401221275, -0.07143595069646835, 0.027168307453393936, -0.04892372712492943, 0.0699174776673317, -0.02541957050561905, -0.060964178293943405, -0.0537925660610199, -0.08083971589803696, 0.024907002225518227, -0.04336482286453247, 0.009589887224137783, 0.035526420921087265, -0.0316099151968956, 0.04252644255757332, -0.09270394593477249, -0.0803106427192688, -0.0990324541926384, -0.010435559786856174, -0.031649790704250336, -0.0036232771817594767, 0.0002943683066405356, 0.03391867130994797, 0.061626531183719635, 0.048528049141168594, -0.04467304050922394, 0.004982195794582367, 0.047725431621074677, -0.027328167110681534, 0.06144963577389717, 0.07607696205377579, 0.10359958559274673, 0.06632766127586365, 0.09044161438941956, -0.02279323898255825, -0.08110097795724869, 0.061054300516843796, -0.06042039766907692, -0.05788884311914444, 0.05687948688864708, 0.08538974821567535, 0.009875921532511711, -0.014216315932571888, -0.08478807657957077, 0.007261789869517088, 0.06566055119037628, 0.021753227338194847, -0.02000156231224537, -0.0020207639317959547, -0.043948203325271606, 0.035904496908187866, -0.01083030179142952, 0.04127197340130806, 0.0011991525534540415, 0.05564084276556969, 0.022000813856720924, -0.005104741081595421, 0.038751862943172455, 0.0338868722319603, 0.07624717056751251, 0.08426851779222488, -0.007143914233893156, -0.08994073420763016, -0.0026481025852262974, -0.019430723041296005, -0.0060504404827952385, -0.03135009855031967, 0.02059641107916832, 0.04518021643161774, 0.008633429184556007], [-0.058133501559495926, -0.10243647545576096, -0.015886150300502777, -0.023413049057126045, 0.07330544292926788, -0.021311355754733086, 0.06186429411172867, -0.05953940004110336, -0.008287274278700352, 0.04286309704184532, -0.0480976477265358, -0.017095016315579414, 0.029749544337391853, -0.03547389432787895, -0.04247293621301651, 0.06735506653785706, 0.05038883164525032, 0.040417615324258804, 0.07124293595552444, -0.028557714074850082, -0.02036796696484089, 0.0002464377030264586, -0.022032547742128372, -0.04693159833550453, -0.10342150181531906, 0.04596451669931412, -0.04586982727050781, -0.06658967584371567, 0.05374257639050484, -0.060385506600141525, -0.020824331790208817, 0.05554758757352829, -0.033576976507902145, -0.027266981080174446, 0.11895618587732315, -0.06697050482034683, -0.08327632397413254, -0.027007410302758217, 0.013846137560904026, -0.0970899760723114, -0.02338329516351223, 0.009335899725556374, -0.03134606406092644, -0.052240245044231415, -0.0036480689886957407, -0.030659981071949005, -0.07303611189126968, -0.002370287664234638, -0.11788778007030487, 0.05870429053902626, -0.04738708212971687, 0.02271355874836445, -0.05133414641022682, 0.22853036224842072, -0.004603548441082239, -0.06539221107959747, 0.0767027959227562, 0.13921761512756348, 0.07323194295167923, 0.026124902069568634, -0.04751782491803169, -0.009280357509851456, 0.10305077582597733, 0.13050515949726105, -0.18297971785068512, -0.04909128695726395, -0.051167141646146774, 0.020193196833133698, 0.0036342365201562643, 0.06890816241502762, 0.03192460164427757, -0.02495645545423031, 0.010242123156785965, -0.06367197632789612, 0.027517762035131454, 0.03128410130739212, 0.03764165937900543, -0.0545453280210495, 0.05242127552628517, -0.012773022055625916, -0.08620041608810425, 0.07273497432470322, 0.04928170144557953, 0.05547273904085159, 0.0176495760679245, -0.01958528719842434, 0.02209184318780899, 0.09070903807878494, -0.07699017971754074, -0.07573225349187851, -0.07094375044107437, 0.0786689966917038, -0.033387236297130585, -0.03577288240194321, 0.030354738235473633, 0.07054053992033005, -0.038130320608615875, -0.05543985590338707, 0.06832338869571686, -0.07442368566989899, 0.07809962332248688, -0.03842921182513237, 0.009156732819974422, -0.03661997988820076, 0.028064122423529625, -0.08548801392316818, -0.02463492751121521, -0.012472867965698242, -0.04114952310919762, -0.050118181854486465, -0.02112334966659546, -0.01973140612244606, -0.02815120667219162, -0.06598371267318726, 0.07069384306669235, -0.05714297294616699, -0.09738842397928238, -0.04837749898433685, 0.02521318383514881, 0.07994277775287628, -0.06792785972356796, 0.0654260516166687, 0.08772339671850204, 0.05461090803146362, -0.08512187749147415, -0.014446372166275978, -0.024998260661959648, -0.014226398430764675], [0.07753826677799225, 0.10138207674026489, 0.06988535076379776, 0.015502778813242912, -0.029075220227241516, -0.017178528010845184, 0.05439053848385811, -0.06662240624427795, -0.017549054697155952, -0.04217247664928436, -0.005953376181423664, 0.19414201378822327, 0.019380485638976097, -0.07798607647418976, 0.015977930277585983, -0.0715998038649559, -0.061869025230407715, 0.11689843237400055, 0.037028539925813675, -0.02960406430065632, -0.06938094645738602, 0.003178267739713192, -0.011194765567779541, 0.018002845346927643, -0.2570189833641052, -0.04863491654396057, 0.2006809264421463, 0.10300267487764359, -0.08098481595516205, -0.3122215270996094, 0.04923776909708977, -0.006069663446396589, -0.010129968635737896, -0.24792051315307617, -0.04979894682765007, -0.048944197595119476, -0.1397758573293686, 0.02783239632844925, 0.1583983600139618, 0.1921309232711792, -0.09260846674442291, -0.16657927632331848, -0.22814883291721344, -0.31342485547065735, 0.11709485203027725, 0.017139315605163574, 0.11758682876825333, 0.03173347935080528, -0.08321907371282578, 0.044622860848903656, -0.012612120248377323, 0.07525981962680817, -0.07828114926815033, 0.08578762412071228, -0.05470431596040726, -0.017805151641368866, -0.09783721715211868, 0.03682838752865791, -0.09499413520097733, -0.015368792228400707, -0.00924034882336855, 0.03584667667746544, 0.046153176575899124, 0.09268854558467865, -0.1767808347940445, -0.08839334547519684, 0.10347498953342438, 0.05217703804373741, -0.1064833477139473, -0.0022453605197370052, 0.01693660020828247, -0.04834531620144844, -0.04743584617972374, 0.1055937185883522, -0.006193983368575573, 0.013435106724500656, -0.09736141562461853, -0.01798754557967186, -0.039897371083498, 0.0433044470846653, -0.0436534583568573, 0.04370366409420967, -0.028344087302684784, 0.13998155295848846, -0.2966180443763733, 0.034244198352098465, -0.09468338638544083, -0.10296986252069473, -0.020530976355075836, -0.3392742872238159, 0.005362154915928841, -0.07052800059318542, 0.0729290321469307, 0.028660563752055168, 0.0730699822306633, 0.021883340552449226, -0.014237340539693832, -0.08065725117921829, -0.01608898676931858, -0.02002193219959736, 0.14106419682502747, -0.08045418560504913, 0.0028741166461259127, 0.10176922380924225, 0.15909498929977417, 0.08903078734874725, -0.10510525107383728, 0.157475084066391, -0.036650195717811584, -0.18834525346755981, 0.20434683561325073, -0.051680706441402435, 0.014969824813306332, 0.09122753143310547, -0.033575426787137985, 0.017673788592219353, 0.10370485484600067, -0.010876449756324291, -0.021761273965239525, -0.10441354662179947, -0.12259040027856827, -0.046091243624687195, -0.06016162410378456, -0.07000602036714554, 0.09719569981098175, -0.017569946125149727, -0.0321156270802021, 0.060096949338912964], [0.010770161636173725, -0.02630472369492054, -0.06895961612462997, -0.0041287606582045555, 0.06577406078577042, 0.08634510636329651, -0.08630270510911942, 0.08241507411003113, -0.012921550311148167, 0.02520003542304039, 0.08818311989307404, 0.04666982591152191, -0.0511808805167675, 0.09429757297039032, -0.08253084123134613, 0.023287879303097725, -0.08024146407842636, -0.03596053272485733, -0.020633717998862267, 0.0033271838910877705, 0.0032520040404051542, -0.008134311065077782, 0.06822612881660461, 0.06941051036119461, 0.09153524786233902, 0.0540279857814312, 0.023411720991134644, -0.03864031657576561, 0.024424508213996887, 0.068511962890625, -0.06024979054927826, -0.08967485278844833, -0.007509853690862656, 0.04514932632446289, 0.013109693303704262, -0.000538661377504468, 0.007600526325404644, 0.07420530915260315, -0.046694688498973846, 0.034969985485076904, 0.08624628931283951, -0.000632380077149719, -0.02688421867787838, -0.027728669345378876, -0.06730444729328156, -0.022071445360779762, -0.005252961069345474, -0.003927725367248058, -0.042486950755119324, -0.0498136468231678, -0.012526299804449081, 0.06824269145727158, -0.016905508935451508, -0.09109195321798325, 0.017344318330287933, -0.023225901648402214, 0.08432596176862717, 0.03566552698612213, 0.06198574975132942, -0.08469854295253754, 0.03824269771575928, 0.055405959486961365, -0.022623872384428978, 0.06344152241945267, 0.0672525018453598, 0.00700117414817214, 0.025984369218349457, -0.051078010350465775, -0.06064488738775253, 0.04010174050927162, 0.04306061193346977, -0.04109663516283035, 0.06136942282319069, -0.07137416303157806, 0.056475650519132614, 0.061874061822891235, 0.04037138447165489, -0.06421791017055511, 0.02545745112001896, 0.0319313108921051, 0.018465222790837288, 0.00565597927197814, 0.08445356041193008, -0.08521630614995956, 0.06755281239748001, 0.044198982417583466, 0.02625041827559471, 0.08846136182546616, -0.02749074436724186, 0.014288652688264847, -0.0005750466953031719, 0.011133805848658085, 0.04190691560506821, -0.010629357770085335, -0.09895269572734833, -0.029454335570335388, -0.05678122863173485, -0.009978978894650936, 0.0074269273318350315, -0.10581853985786438, -0.03565344959497452, -0.023973628878593445, -0.009409284219145775, 0.06057307869195938, -0.08444921672344208, 0.0819316953420639, 0.03896908462047577, -0.08783001452684402, 0.002189326100051403, 0.052488233894109726, -0.07806312292814255, -0.03883837163448334, 0.10545124113559723, 0.05386126786470413, -0.06923738121986389, 0.03641781955957413, -0.026359451934695244, -0.08316599577665329, 0.02313663251698017, 0.04449581354856491, -0.047543950378894806, 0.01014027651399374, -0.09589985758066177, 0.07994166016578674, 0.058557674288749695, 0.06593292206525803, -0.004633874632418156, 0.008164376951754093], [-0.04127649590373039, -0.15185511112213135, 0.02124364860355854, -0.02843017317354679, -0.026035403832793236, 0.10906501114368439, 0.09113215655088425, -0.13837650418281555, 0.05647655203938484, 0.07200395315885544, 0.07064531743526459, 0.01357481349259615, 0.06045394018292427, -0.05993453040719032, 0.15811318159103394, 0.03730836883187294, -0.05479855462908745, -0.039118822664022446, 0.0500495471060276, 0.03891194239258766, -0.07978793978691101, 0.027649685740470886, 0.03647499531507492, -0.006872427649796009, -0.22550316154956818, 0.02641037292778492, -0.033662620931863785, -0.026018882170319557, -0.016800738871097565, -0.18622682988643646, -0.0047749681398272514, 0.12097270041704178, 0.06353038549423218, -0.07407419383525848, 0.06599333882331848, -0.021145736798644066, -0.06227628141641617, -0.02275639958679676, -0.08370477706193924, 0.026349278166890144, -0.08653172105550766, -0.06382957845926285, -0.05511780455708504, -0.17101018130779266, 0.027087215334177017, -0.10400593280792236, 0.04001055285334587, 0.05508279427886009, -0.23555204272270203, 0.10712335258722305, -0.09706476330757141, 0.1756216138601303, 0.0627574473619461, 0.49897024035453796, 0.027228672057390213, 0.07769407331943512, 0.014788544736802578, 0.17491374909877777, 0.12447140365839005, 0.17886094748973846, 0.014183051884174347, -0.007992380298674107, -0.0034389204811304808, 0.24112997949123383, -0.1004844531416893, -0.056169718503952026, -0.010641011409461498, 0.11008167266845703, -0.09902703016996384, -0.0489959754049778, -0.03058215044438839, -0.07116077095270157, -0.0021744221448898315, 0.002263664733618498, 0.10186184197664261, 0.02643037587404251, -0.08646104484796524, 0.018111856654286385, 0.03792640194296837, -0.05611782148480415, -0.0631047710776329, 0.08744743466377258, -0.10602802038192749, -0.011134372092783451, -0.04225736856460571, -0.09229055047035217, -0.08624317497015, -0.0958961695432663, 0.037451405078172684, -0.17283347249031067, 0.039041802287101746, 0.054491471499204636, 0.011705382727086544, -0.06454815715551376, 0.059404145926237106, 0.08650080859661102, 0.11328305304050446, 0.026755867525935173, 0.030203118920326233, 0.07342838495969772, 0.22464428842067719, -0.08981764316558838, 0.04467213898897171, 0.010632302612066269, -0.02958827279508114, 0.02193487621843815, -0.1069028303027153, 0.02551453188061714, 0.012003680691123009, -0.07752739638090134, -0.034876659512519836, -0.023010650649666786, 0.02926183119416237, -0.019086334854364395, 0.15056711435317993, 0.038038432598114014, 0.019097300246357918, 0.009443840011954308, -0.08825274556875229, -0.09260226786136627, -0.04134343937039375, -0.010485057719051838, 0.027801530435681343, -0.03262312337756157, -0.029478827491402626, -0.06436749547719955, 0.11319945007562637, 0.06401257961988449], [-0.026048244908452034, -0.07137562334537506, 0.024751588702201843, 0.06643764674663544, 0.028001056984066963, -0.01616055890917778, -0.002611201023682952, -0.07157904654741287, -0.032696861773729324, 0.05061287432909012, -0.015458931215107441, 0.04309909790754318, 0.0027385372668504715, 0.03276302292943001, 0.08903688192367554, -0.11408160626888275, 0.06472375243902206, -0.019060630351305008, 0.023444581776857376, -0.05316871404647827, -0.0752115398645401, -0.01195613108575344, 0.10692804306745529, 0.0128946453332901, -0.18423296511173248, 0.0639619529247284, -0.11014991253614426, 0.049708686769008636, 0.02400805614888668, -0.15894398093223572, -0.10836562514305115, 0.06510429829359055, -0.016023598611354828, -0.1096506267786026, -0.03062966838479042, -0.07681330293416977, -0.1299523562192917, -0.08650379627943039, 0.0626429095864296, 0.06187869608402252, -0.10468927025794983, -0.15578165650367737, -0.09855801612138748, -0.3094184696674347, 0.15113823115825653, 0.04386606812477112, 0.009625016711652279, -0.08481060713529587, -0.14412549138069153, 0.10821501165628433, 0.04723193868994713, 0.08057749271392822, -0.10616800934076309, 0.36172568798065186, 0.09731005877256393, -0.010706817731261253, -0.07677245885133743, 0.10177458077669144, 0.0993913933634758, 0.15698662400245667, 0.09445756673812866, 0.11036241054534912, -0.006608500611037016, 0.17490659654140472, -0.12864132225513458, 0.04327338561415672, -0.03107859008014202, 0.11519263684749603, -0.03651333600282669, -0.0018090222729369998, -0.040216345340013504, -0.0799768716096878, -0.04067032411694527, 0.04036805406212807, -0.03747577220201492, -0.019681524485349655, -0.05449962615966797, -0.07736017554998398, 0.05967695638537407, 0.020126819610595703, -0.02295788936316967, 0.15075726807117462, -0.0819876417517662, -0.041369784623384476, -0.19632026553153992, -0.07271838933229446, -0.10913751274347305, -0.110343337059021, -0.10734785348176956, -0.2622176706790924, 0.08934096992015839, 0.021417969837784767, 0.110103540122509, 0.00494945514947176, 0.04948866739869118, 0.002649125875905156, 0.06221018731594086, -0.05714954063296318, 0.0026074526831507683, 0.033949948847293854, 0.16732797026634216, 0.021757787093520164, -0.07306263595819473, 0.16249530017375946, -0.01770835928618908, 0.06900845468044281, -0.015911223366856575, 0.07082291692495346, 0.0830642357468605, 0.014758295379579067, 0.10673099756240845, -0.047199707478284836, 0.028882915154099464, 0.02287893369793892, 0.14570926129817963, 0.13504324853420258, 0.034340448677539825, -0.0498233288526535, -0.04439757764339447, 0.005206021945923567, -0.030224604532122612, 0.04614508897066116, 0.13405875861644745, 0.023127488791942596, -0.016260141506791115, -0.037840813398361206, 0.10503150522708893, 0.016043053939938545], [-0.014664825983345509, -0.15760256350040436, -0.06865988671779633, -0.053608279675245285, -0.04149286448955536, 0.07306142896413803, 0.011636130511760712, 0.05402145907282829, -0.00010348334035370499, -0.0030785331036895514, 0.059156496077775955, -0.0710647776722908, -0.04104922339320183, -0.02534668520092964, -0.04733747988939285, 0.030282551422715187, 0.010159117169678211, 0.00616095494478941, 0.04189774766564369, 0.04063766449689865, -0.005484329536557198, -0.10124239325523376, -0.07807300984859467, -0.035894785076379776, 0.055203091353178024, 0.07159832119941711, -0.04742862656712532, -0.09751256555318832, 0.009651174768805504, 0.004193303640931845, 0.027111658826470375, 0.0111084571108222, -0.02137858048081398, 0.07496105134487152, 0.03946521133184433, 0.011178030632436275, 0.005006313789635897, -0.026093600317835808, -0.007001848891377449, -0.0816509872674942, -0.012295975349843502, 0.10057632625102997, 0.04734446480870247, 0.042084950953722, -0.0558772087097168, 0.012618593871593475, -0.1095159500837326, 0.046384669840335846, 0.0504341721534729, 0.03227778524160385, 0.021947328001260757, 0.0011479933746159077, 0.054178714752197266, 0.050926901400089264, -0.057880889624357224, 0.03083004057407379, 0.05277664214372635, -0.07531364262104034, 0.021222013980150223, -0.06853987276554108, -0.041899822652339935, -0.054292790591716766, -0.023552406579256058, 0.0719495490193367, -0.1076536700129509, 0.02460043877363205, -0.10692217200994492, -0.027317965403199196, 0.033387526869773865, 0.08763742446899414, -0.0018973022233694792, 0.0526212714612484, 0.030971193686127663, 0.02030322328209877, -0.004154169000685215, 0.014245756901800632, -0.02471129037439823, -0.04264828935265541, 0.052746616303920746, -0.03749380633234978, -0.03326934948563576, -0.03649531677365303, 0.1094864159822464, -0.1360895186662674, 0.057305339723825455, 0.0019903182983398438, 0.06989631801843643, 0.05940250679850578, 0.09021559357643127, 0.020711740478873253, 0.015551893971860409, -0.013993963599205017, -0.02784041501581669, 0.026206519454717636, 0.04980802536010742, -0.06772599369287491, -0.05244112014770508, 0.006387018598616123, -0.04065866023302078, -0.09999477863311768, -0.10214097797870636, -0.01750849187374115, 0.08275698870420456, 0.0044747041538357735, -0.11208420991897583, -0.004214875865727663, -0.030585095286369324, -0.03201639652252197, -0.03537843003869057, -0.0441737100481987, 0.019074447453022003, -0.04436742886900902, 0.02746424451470375, -0.10126762092113495, -0.02043410949409008, -0.07017526030540466, -0.02942737378180027, -0.07115878164768219, 0.08638422936201096, -0.04296736419200897, 0.06207052618265152, -0.08267754316329956, 0.031289443373680115, -0.020130984485149384, -0.028190739452838898, 0.01315025333315134, 0.04012302681803703, 0.01149620022624731], [-0.10315634310245514, 0.05422189459204674, -0.10033553838729858, 0.02088516764342785, -0.010988996364176273, -0.06374242156744003, -0.0753229558467865, 0.04711925983428955, -0.07948359102010727, -0.004030645824968815, 0.063186414539814, 0.0223343838006258, 0.044656768441200256, -0.04112124815583229, -0.030334537848830223, 0.022428415715694427, -0.05495474860072136, -0.05220234766602516, 0.026396779343485832, 0.06085324287414551, 0.05824291706085205, 0.019047340378165245, -0.11024505645036697, 0.041906703263521194, 0.10027460008859634, 0.05203019455075264, -0.066012442111969, -0.07448256760835648, 0.09727125614881516, 0.2749103009700775, -0.012605668045580387, -0.08607712388038635, -0.026884274557232857, 0.14795900881290436, 0.001518454635515809, -0.02613214962184429, -0.05509308725595474, 0.0688367411494255, 0.04629559814929962, -0.06921979784965515, 0.07246727496385574, 0.1648022085428238, 0.15533913671970367, 0.20411203801631927, -0.09569450467824936, 0.07605332136154175, 0.06004079058766365, 0.10878109186887741, 0.11265017092227936, -0.04794209077954292, 0.08783160150051117, -0.17634765803813934, 0.045179519802331924, -0.26224222779273987, -0.02955589070916176, -0.060930151492357254, 0.0483030304312706, -0.0858495756983757, -0.11478554457426071, -0.22905880212783813, -0.08120961487293243, 0.019095659255981445, 0.08184783160686493, -0.1961197555065155, 0.10038533061742783, -0.030402610078454018, -0.09186787903308868, -0.007676428649574518, 0.06743825972080231, 0.021557023748755455, 0.05350854992866516, 0.06507787108421326, 0.05635800585150719, -0.02345762401819229, -0.0771617442369461, -0.0018002769211307168, 0.04930472373962402, 0.04336477816104889, -0.06195366382598877, 0.0837559774518013, 0.0761713907122612, -0.025206318125128746, 0.06437060236930847, 0.058782607316970825, 0.1722531020641327, 0.03532126173377037, 0.12857891619205475, 0.1201683059334755, -0.005069818813353777, 0.32227280735969543, -0.005564827471971512, 0.0400998480618, 0.038974013179540634, -0.06257931888103485, 0.01697244495153427, 0.027532272040843964, -0.0920940563082695, -0.0864223912358284, -0.045264992862939835, -0.03477045148611069, -0.2143046259880066, -0.021943679079413414, 0.06066231429576874, -0.025161029770970345, 0.08203308284282684, 0.03945751488208771, 0.0669417679309845, -0.07424547523260117, -0.09817905724048615, 0.02361481823027134, 0.026524189859628677, 0.03962177783250809, 0.023677513003349304, -0.06688284128904343, -0.1325201690196991, -0.12112594395875931, 0.0551026426255703, 0.0014335175510495901, -0.03947600722312927, 0.032305024564266205, 0.045639779418706894, -0.08871786296367645, -0.03804502636194229, 0.08087915182113647, -0.12320563942193985, -0.03407871350646019, -0.1122722402215004, -0.16029006242752075], [-0.07714758068323135, -0.21848998963832855, -0.01557421125471592, -0.0871073305606842, 0.024259351193904877, 0.00828285701572895, 0.08665473759174347, -0.04378809407353401, -0.025123272091150284, -0.07116060703992844, 0.04004000872373581, -0.15484626591205597, -0.019506877288222313, -0.025109775364398956, -0.000839355168864131, 0.038684744387865067, 0.08513297885656357, -0.0645613819360733, 0.004062767140567303, -0.031113281846046448, -0.039950501173734665, 0.06990581005811691, 0.042428016662597656, 0.08447305113077164, -0.06610383838415146, -0.064679816365242, -0.2571077346801758, 0.07223869115114212, -0.05089360848069191, -0.011184380389750004, 0.02494223602116108, 0.05427340418100357, 0.07256527245044708, 0.06134047359228134, 0.0536406934261322, -0.038033150136470795, -0.010266711935400963, 0.05650792270898819, -0.05635659396648407, -0.04092736542224884, -0.022845715284347534, 0.011946531943976879, 0.0893821269273758, -0.03240688145160675, 0.047320570796728134, 0.05259289965033531, 0.05902772396802902, -0.05184914916753769, -0.10129952430725098, 0.09729520976543427, 0.014899165369570255, 0.07371911406517029, -0.06754705309867859, 0.16985490918159485, 0.08756545931100845, 0.039313361048698425, 0.07642749696969986, 0.021709274500608444, 0.09238149225711823, 0.0594480000436306, 0.07668770849704742, 0.09921196103096008, 0.03136494383215904, 0.21445076167583466, -0.1310281604528427, -0.07198256254196167, -0.12052321434020996, 0.09577576816082001, 0.029677053913474083, -0.06077978387475014, 0.06529390066862106, 0.09750603884458542, -0.10921523720026016, 0.05334421992301941, 0.07004529237747192, 0.03154816851019859, 0.08226571977138519, 0.0891897901892662, 0.044198404997587204, 0.08295879513025284, 0.045396964997053146, 0.04179731011390686, -0.05070842429995537, -0.123528391122818, 0.023745592683553696, 0.02617444470524788, 0.044275425374507904, -0.009488050825893879, -0.09451784193515778, -0.1652219146490097, 0.07026717811822891, 0.1440913826227188, 0.0604730062186718, 0.007274229545146227, -0.006907075643539429, 0.006298542022705078, 0.06254614889621735, -0.02407539263367653, 0.04537132382392883, 0.06738033890724182, 0.001972043188288808, 0.007080596871674061, -0.011324873194098473, -0.00793981458991766, -0.19068346917629242, 0.0191092099994421, 0.067444808781147, -0.10513916611671448, 0.06900182366371155, -0.011612382717430592, -0.1520591527223587, -0.006135856732726097, 0.027703363448381424, 0.05746157467365265, -0.02026304416358471, -0.034659188240766525, -0.06372427195310593, 0.00657599326223135, -0.06700273603200912, -0.025797901675105095, 0.12648537755012512, -0.038885071873664856, -0.03724982589483261, -0.015200098976492882, -0.0063676075078547, -0.014370869845151901, 0.14878271520137787, -0.006664811167865992], [-0.07467944175004959, 0.14581629633903503, -0.02014295570552349, 0.006800806149840355, -0.012555083259940147, -0.07662452012300491, -0.005433471407741308, -0.058960795402526855, 0.033806297928094864, 0.07008606195449829, -0.037595514208078384, 0.08540816605091095, -0.04611204192042351, 0.05504123494029045, -0.11739815026521683, -0.054805174469947815, 0.05434092879295349, -0.08429279178380966, 0.051402747631073, -0.004012314602732658, 0.08012440800666809, -0.05447598174214363, 0.0025268595200031996, 0.016100788488984108, -0.031717877835035324, 0.0912570059299469, 0.058269012719392776, -0.05019380524754524, 0.07709851115942001, -0.08418203890323639, -0.05327043682336807, -0.04318518564105034, -0.06283988803625107, -0.14637507498264313, -0.03927900269627571, -0.021200278773903847, -0.0959431529045105, 0.03233359381556511, 0.1133003905415535, 0.031272463500499725, 0.03153568506240845, -0.1176062524318695, -0.12744492292404175, -0.0789530947804451, -0.025739876553416252, -0.07778196036815643, -0.07050234824419022, 0.11178763955831528, -0.0430152527987957, 0.00735285971313715, 0.11472917348146439, -0.09882216900587082, -0.04861777275800705, -0.1513284146785736, -0.048967428505420685, -0.0062218052335083485, -0.0734783187508583, -0.06637751311063766, -0.0179835706949234, -0.002886364236474037, -0.007553528528660536, -0.01972450129687786, 0.08012562245130539, -0.053984761238098145, 0.018232423812150955, -0.06346078217029572, -0.04578831046819687, -0.04330062493681908, 0.003368462435901165, 0.01431440468877554, -0.017591629177331924, 0.027665775269269943, 0.09152044355869293, -0.04891863092780113, -0.15310750901699066, -0.08133867383003235, -0.03005019761621952, 0.03093923255801201, -0.0827396884560585, -0.00789418164640665, -0.05667790770530701, -0.07756678014993668, 0.0241955928504467, 0.05838744342327118, -0.14428819715976715, -0.024264194071292877, -0.028228366747498512, 0.03916070610284805, 0.043622370809316635, -0.040510017424821854, 0.007599646225571632, -0.11135383695363998, -0.0492367260158062, -0.12236270308494568, 0.00939826387912035, -0.10370863974094391, 0.05393289402127266, -0.0650266483426094, -0.015541726723313332, -0.007900960743427277, -0.023195780813694, -0.03669970855116844, 0.0699034258723259, -0.07094195485115051, 0.1725481003522873, -0.03705992177128792, -0.04547732323408127, -0.002882522065192461, -0.018297744914889336, -0.07745377719402313, 0.1434074342250824, 0.08615922182798386, 0.006248784717172384, -0.06558047235012054, -0.05043145641684532, -0.03139123320579529, -0.02949514612555504, -0.10264281928539276, 0.0428290069103241, 0.08244147151708603, -0.08821698278188705, -0.08899875730276108, -0.1037222221493721, 0.008753839880228043, 0.029117612168192863, 0.01716143637895584, -0.03795021027326584, 0.05306205898523331], [0.05172065645456314, -0.03492515906691551, 0.004845345858484507, 0.07581188529729843, 0.03271874040365219, -0.053375743329524994, -0.04046376794576645, -0.051727134734392166, 0.044221341609954834, 0.07176131755113602, -0.050511684268713, -0.06763044744729996, -0.012382538989186287, -0.02978520467877388, 0.09923720359802246, -0.06254487484693527, 0.07836118340492249, 0.03449483588337898, 0.08694291114807129, -0.07646673917770386, 0.008568697609007359, 0.023712653666734695, -0.04026961326599121, 0.024884046986699104, -0.2983485460281372, 0.06381387263536453, -0.003535730764269829, 0.05052415281534195, 0.02519245073199272, -0.2137768566608429, 0.013026231899857521, 0.06972439587116241, -0.05336809158325195, -0.07250697165727615, -0.017158064991235733, -0.032046519219875336, -0.019960371777415276, 0.054787132889032364, -0.02683819830417633, -0.035078004002571106, 0.04008292779326439, -0.18446707725524902, -0.08232861012220383, -0.2534962296485901, 0.11162596940994263, 0.042701851576566696, -0.05496692657470703, -0.05118997395038605, -0.1286948323249817, 0.058258384466171265, -0.013182483613491058, 0.0311004426330328, 0.05659995973110199, 0.2422354519367218, 0.05334320291876793, -0.03214067965745926, -0.04623863473534584, 0.17132475972175598, -0.0009038198622874916, 0.2229950726032257, 0.0030383444391191006, -0.005687515251338482, 0.038519926369190216, 0.12995284795761108, -0.13754811882972717, 0.001419429900124669, 0.10935322940349579, 0.07683850824832916, 0.05027300491929054, 0.02960710972547531, -0.005168170668184757, -0.004880051128566265, 0.016748934984207153, -0.004842482507228851, 0.07538796216249466, 0.10201936215162277, 0.009740440174937248, -0.046058401465415955, 0.09081660211086273, -0.0959949865937233, 0.04047539085149765, 0.09407003968954086, 0.030973540619015694, 0.012901333160698414, -0.2562551200389862, 0.06455611437559128, -0.07384604960680008, 0.0069768186658620834, 0.04040351137518883, -0.36458638310432434, 0.02704428881406784, -0.09734015166759491, 0.10221128165721893, -0.0651092603802681, 0.07257916033267975, 0.08700646460056305, 0.06428918987512589, 0.09100600332021713, -0.008933485485613346, -0.06713508069515228, 0.18641547858715057, -0.008812758140265942, -0.01887352578341961, -0.020042164251208305, -0.06061182916164398, -0.03419564664363861, 0.07305517047643661, 0.07708952575922012, 0.06716013699769974, 0.009304376319050789, -0.011305166408419609, -0.05451330915093422, -0.042778391391038895, -0.040699318051338196, 0.14070945978164673, 0.07188819348812103, 0.08601580560207367, -0.0313216857612133, -0.10203374177217484, -0.03429190814495087, -0.010713288560509682, 0.09843127429485321, 0.06523130089044571, -0.03660381957888603, -0.05454600974917412, -0.06626801192760468, 0.14068253338336945, 0.009047801606357098], [-0.004604153335094452, -0.07314729690551758, -0.10734985023736954, -0.06712375581264496, -0.039610765874385834, 0.02821737341582775, -0.07209860533475876, 0.009781114757061005, -0.005701358430087566, -0.046698249876499176, -0.03188537061214447, -0.08914899826049805, -0.04821598529815674, -0.029017074033617973, -0.07709374278783798, 0.06187393516302109, -0.042607635259628296, -0.0950608104467392, -0.020139513537287712, 0.006055057048797607, 0.0795893520116806, -0.05143309012055397, 0.0029138578101992607, 0.14959730207920074, 0.22051548957824707, -0.016901180148124695, -0.22023126482963562, -0.10495345294475555, 0.02738802880048752, 0.20344150066375732, 0.0668812096118927, 0.034412775188684464, -0.005374194588512182, 0.14063851535320282, 0.04178391769528389, 0.04339241981506348, 0.07982833683490753, 0.11663196980953217, -0.19146019220352173, -0.026715120300650597, -0.005496930796653032, 0.07112546265125275, 0.13319247961044312, 0.20453619956970215, 0.02321609854698181, 0.12346085160970688, -0.024455083534121513, 0.03368799388408661, 0.08634767681360245, -0.04526696354150772, 0.011174406856298447, 0.06493742763996124, 0.13292275369167328, -0.09612713009119034, -0.05068577080965042, -0.08011895418167114, 0.06196300685405731, -0.07933101803064346, -0.0018780052196234465, -0.06621699780225754, 0.048521481454372406, 0.030939243733882904, -0.023687798529863358, -0.08709877729415894, 0.11042183637619019, -0.03072773478925228, -0.07816296815872192, -0.10710688680410385, 0.08350031822919846, -0.009446459822356701, 0.04119307920336723, 0.04139215126633644, 0.08406959474086761, -0.03773493692278862, -0.09379798173904419, -0.08156916499137878, 0.020734481513500214, 0.009269706904888153, -0.031372446566820145, 0.10994437336921692, -0.023591646924614906, -0.061078235507011414, 0.08371838927268982, -0.21646499633789062, 0.13060079514980316, 0.018416427075862885, 0.1690577119588852, 0.019215913489460945, 0.06950763612985611, 0.12021216750144958, -0.07961151003837585, 0.025746453553438187, 0.036376673728227615, 0.08105209469795227, -0.06808234006166458, 0.010545864701271057, 0.022300545126199722, -0.0012812918284907937, 0.10037843883037567, -0.11298173666000366, -0.09706379473209381, -0.0717393010854721, 0.09513357281684875, -0.12009555846452713, -0.19738629460334778, -0.04213086888194084, -0.03694114461541176, -0.09273272007703781, -0.020086323842406273, -0.03469475358724594, -0.08444975316524506, 0.011210995726287365, -0.0033557978458702564, 0.04804379120469093, 0.04298226907849312, -0.12238891422748566, -0.11041032522916794, -0.0584997683763504, 0.07559072226285934, 0.09697062522172928, 0.0654381513595581, -0.0780043825507164, -0.121271513402462, -0.04631707817316055, -0.11108066886663437, 0.05780039727687836, -0.05783724784851074, -0.10622665286064148], [-0.006632460281252861, -0.07121063023805618, -0.11717790365219116, -0.1339375227689743, -0.033221300691366196, 0.15214158594608307, 0.015170206315815449, 0.03673159331083298, 0.01020013727247715, -0.017929086461663246, 0.002650253241881728, -0.12396369129419327, -0.05108410865068436, -0.030439481139183044, -0.06322786957025528, -0.02159530483186245, -0.03218443691730499, -0.07879243791103363, 0.054944995790719986, 0.10432614386081696, 0.09805015474557877, -0.006763738114386797, -0.044083595275878906, 0.08608968555927277, 0.060142043977975845, -0.026418354362249374, -0.07502833753824234, -0.0014762970386072993, -0.008566543459892273, 0.16589383780956268, 0.11005967855453491, -0.07867466658353806, -0.006711418740451336, 0.10221048444509506, -0.0026091679465025663, 0.05022133141756058, 0.10546812415122986, 0.03159180283546448, -0.1533515602350235, -0.022475101053714752, 0.06524721533060074, 0.13131988048553467, 0.10654612630605698, 0.10309939086437225, -0.10918843001127243, 0.019006453454494476, -0.019090740010142326, 0.02802087366580963, 0.11558873951435089, 0.0018373316852375865, -0.007987376302480698, -0.041564714163541794, 0.08789429068565369, -0.08314476162195206, -0.05541720986366272, 0.018843702971935272, 0.04581376537680626, -0.16605804860591888, -0.02275073155760765, -0.10345648229122162, 0.04131782054901123, 0.04101550579071045, 0.022039297968149185, 0.02073768712580204, 0.04979891702532768, 0.11711690574884415, 0.007593614049255848, -0.06501499563455582, -0.05509348213672638, 0.02071959525346756, 0.022812865674495697, 0.05744043365120888, -0.04648632928729057, 0.041491854935884476, -0.04460368677973747, -0.027075421065092087, -0.013650993816554546, 0.010647906921803951, -0.10116670280694962, -0.0006169515545479953, 0.04200950264930725, 0.01625179313123226, 0.1525622010231018, -0.10008224099874496, 0.14362137019634247, -0.04081783443689346, 0.006651716772466898, 0.02100227400660515, -0.03181900084018707, 0.03489028289914131, -0.1140090674161911, 0.02702167071402073, 0.1006489172577858, 0.040872640907764435, -0.1259356290102005, -0.11231900751590729, -0.08956439048051834, -0.09860997647047043, 0.0027877597603946924, 0.04740401729941368, -0.06383921951055527, -0.009133686311542988, 0.09288575500249863, -0.1263238489627838, -0.17803063988685608, 0.058564797043800354, -0.028880441561341286, 0.002210309263318777, 0.0456007681787014, -0.02564774826169014, -0.14076262712478638, 0.058892156928777695, -0.0640958771109581, 0.09047937393188477, -0.10890088975429535, -0.026835491880774498, -0.052581239491701126, -0.02211076393723488, 0.04419507458806038, 0.04462113231420517, 0.09464404731988907, 0.01653972454369068, -0.04367601126432419, 0.011219337582588196, -0.030780203640460968, 0.005931631196290255, -0.06173728406429291, -0.13113370537757874], [-0.06447527557611465, -0.06808071583509445, -0.036293093115091324, 0.07825970649719238, 0.025723103433847427, 0.033541239798069, 0.09332159906625748, -0.20828662812709808, -0.00563309108838439, 0.03849765285849571, 0.0348401814699173, -0.1032973900437355, 0.024895789101719856, -0.06541204452514648, 0.06576775014400482, 0.03667623922228813, -0.0011861353414133191, 0.014172052033245564, 0.008312816731631756, 0.07956729084253311, 0.02894783951342106, 0.020943330600857735, -0.038322433829307556, -0.06762755662202835, 0.08826914429664612, 0.05864475667476654, 0.03452298045158386, -0.05754522606730461, 0.051990773528814316, -0.01891179010272026, 0.0490892268717289, 0.09629135578870773, 0.027603795751929283, -0.027054667472839355, 0.08199971169233322, -0.008174347691237926, 0.05060439556837082, -0.09627874195575714, -0.016510704532265663, -0.07084149122238159, -0.04920663312077522, 0.014811011962592602, -0.0821160301566124, -0.01572873443365097, 0.13212743401527405, 0.03607196360826492, 0.02434985712170601, -0.0677378699183464, -0.14091916382312775, 0.0068584042601287365, 0.04772984981536865, 0.11110146343708038, -0.02721247263252735, 0.2085442841053009, 0.010020480491220951, 0.053402602672576904, 0.04257528483867645, 0.13745485246181488, -0.01074354350566864, 0.24852876365184784, 0.03617458418011665, -0.011992888525128365, -0.03165382146835327, 0.17631325125694275, -0.1345304548740387, 0.03667408600449562, 0.08495958149433136, 0.03719481825828552, 0.06706433743238449, -0.05477096140384674, -0.05419599637389183, -0.05551758036017418, -0.09820152074098587, -0.03816800191998482, -0.0634661316871643, 0.025692850351333618, -0.013381430879235268, -0.03919215127825737, -0.05316869914531708, 0.0656874030828476, -0.03458437696099281, 0.07091450691223145, 0.044638726860284805, -0.0820070281624794, 0.08609925955533981, 0.057192232459783554, 0.06221799924969673, -0.02528110332787037, 0.05012412741780281, -0.04670410603284836, -0.04200882837176323, 0.061131060123443604, 0.01258314959704876, 0.08189646154642105, 0.04024164751172066, -0.007752583362162113, 0.0935816541314125, 0.08819878846406937, -0.01163859385997057, -0.03787896782159805, 0.11095812171697617, -0.046433646231889725, 0.05458585545420647, 0.04892668128013611, 0.04608652740716934, 0.0771164670586586, 0.01877925544977188, -0.06026400998234749, 0.08545705676078796, 0.03929874673485756, -0.05641637742519379, 0.056022994220256805, 0.008526954799890518, -0.018137335777282715, -0.01396583579480648, 0.0045017641969025135, -0.0734790563583374, 0.048907291144132614, 0.050093621015548706, -0.030137252062559128, 0.08170124143362045, 0.005645803641527891, 0.05121674761176109, -0.07608254998922348, 0.006816423498094082, 0.026782600209116936, 0.10851103067398071, 0.03655768558382988], [-0.06774816662073135, 0.27525943517684937, 0.038160260766744614, 0.02256508730351925, -0.10526398569345474, -0.051861874759197235, -0.036796391010284424, 0.11867991834878922, -0.02386080101132393, -0.019468294456601143, 0.0284761730581522, 0.1466154009103775, 0.024355970323085785, 0.10341057926416397, -0.02315302938222885, -0.05326319858431816, -0.0346151702105999, -0.09372123330831528, -0.09477133303880692, 0.010048567317426205, 0.04813237115740776, -0.02098832279443741, 0.028739651665091515, -0.02272753417491913, 0.07345575094223022, 0.015343111008405685, 0.1675802767276764, -0.02282058261334896, 0.08615536242723465, 0.07771706581115723, -0.020513802766799927, -0.04069541022181511, 0.022173237055540085, -0.01750384271144867, 0.06371359527111053, -0.013015632517635822, 0.08931946754455566, 0.08307209610939026, 0.11919087916612625, -0.006867706775665283, -0.04799478501081467, -0.062412410974502563, 0.03450656309723854, 0.16173675656318665, -0.11018584668636322, 0.07383734732866287, 0.011624342761933804, 0.02345385029911995, 0.12238110601902008, -0.0803501307964325, 0.13080576062202454, -0.14865396916866302, 0.061501409858465195, -0.3151334226131439, -0.12119921296834946, -0.022134093567728996, 0.08863390237092972, -0.08871077746152878, -0.04548436403274536, -0.24829547107219696, -0.04446155205368996, -0.10980229824781418, -0.06273160874843597, -0.17653346061706543, 0.035540152341127396, 0.07040518522262573, -0.04984254390001297, -0.044405292719602585, 0.07283122837543488, -0.04250432550907135, 0.05624421313405037, 0.005942522082477808, 0.08783694356679916, 0.08619878441095352, -0.10367964953184128, -0.0714966207742691, 0.09489087015390396, 0.03432401269674301, -0.03606102988123894, 0.08511339128017426, -0.05472194775938988, -0.05430881679058075, 0.06369785219430923, 0.1275148242712021, -0.08195571601390839, 0.04514133557677269, -0.06207938492298126, -0.01394287683069706, 0.10710837692022324, 0.15870176255702972, -0.07576197385787964, -0.03084418922662735, -0.0094678970053792, -0.09671693295240402, -0.08690330386161804, -0.14110128581523895, -0.001963282935321331, -0.09075041860342026, 0.043214958161115646, -0.03843654692173004, -0.17727112770080566, -0.03660499304533005, -0.04685284569859505, -0.11877961456775665, 0.17835572361946106, -0.1079537495970726, -0.04680949077010155, 0.0873943641781807, -0.036071132868528366, -0.09301765263080597, 0.05908098444342613, 0.0994131863117218, -0.01694262959063053, -0.06536424905061722, -0.14509615302085876, -0.0015924115432426333, -0.007164287380874157, -0.07556602358818054, 0.08343371748924255, -0.04860334098339081, 0.03259357810020447, -0.13190588355064392, -0.08584322035312653, 0.06508872658014297, -0.05283616855740547, 0.10432548820972443, -0.16316837072372437, -0.07995735108852386], [-0.04224737361073494, -0.03472520411014557, 0.10828305035829544, 0.12099605798721313, 0.025869570672512054, -0.0001266240724362433, 0.11048678308725357, -0.05287747085094452, 0.08225707709789276, -0.0071179564110934734, -0.0514102466404438, -0.053405892103910446, 0.061471935361623764, -0.016671840101480484, 0.0030394450295716524, -0.039468828588724136, -0.014596043154597282, 0.04309668019413948, 0.0631885826587677, -0.06780233234167099, -0.022589577361941338, -0.031791966408491135, 0.03578020632266998, -0.11271408945322037, -0.119264617562294, 0.06918469816446304, 0.08786779642105103, 0.07328413426876068, 0.04106869548559189, -0.0766049176454544, -0.010890409350395203, 0.05656803026795387, 0.04016588628292084, -0.021241089329123497, 0.0602063350379467, -0.030837392434477806, -0.05033554509282112, -0.07132937014102936, 0.060820188373327255, -0.05741741135716438, 0.004588773008435965, -0.1382603645324707, -0.039783746004104614, -0.17731758952140808, 0.0629698634147644, 0.012878009118139744, 0.04514602944254875, -0.09499157220125198, -0.06967096030712128, 0.12452469021081924, 0.037285372614860535, 0.09470344334840775, 0.003658715868368745, 0.19746695458889008, 0.034833379089832306, 0.058530643582344055, 0.0001490997092332691, 0.15719236433506012, -0.06898581981658936, 0.21448476612567902, -0.015556390397250652, 0.09629958868026733, 0.050291866064071655, 0.16271767020225525, -0.015964264050126076, 0.03650844842195511, 0.09889764338731766, 0.022053979337215424, 0.059037379920482635, -0.01531966868788004, 0.012657689861953259, -0.06451260298490524, 0.03940194100141525, 0.07844193279743195, -0.052267856895923615, 0.09522715955972672, -0.09158620238304138, -0.10978762805461884, -0.05020417645573616, -0.011370724067091942, -0.07534394413232803, 0.009507190436124802, -0.0784909576177597, 0.04149322584271431, -0.2599080801010132, -0.05167054384946823, -0.04250147566199303, -0.020891301333904266, -0.06290406733751297, -0.22662393748760223, -0.025304041802883148, -0.12280869483947754, 0.02922234870493412, -0.04222460463643074, 0.07597947120666504, -0.023095034062862396, 0.02013201080262661, 0.05443437770009041, -0.11171229928731918, 0.08958728611469269, 0.0772712454199791, -0.027409454807639122, -0.08522001653909683, 0.025644738227128983, -0.09891042113304138, -0.05316290631890297, 0.004497610963881016, 0.02185399830341339, 0.10147292912006378, 0.026280630379915237, 0.12454501539468765, -0.002673143520951271, 0.024033449590206146, 0.0891985073685646, 0.1370709389448166, -0.01896967738866806, 0.0044349306263029575, -0.09934157133102417, -0.03131812438368797, -0.05188394710421562, 0.026714934036135674, 0.05501345917582512, 0.04254382476210594, -0.08779500424861908, -0.03162243217229843, -0.01616877317428589, 0.04207253083586693, 0.002690506400540471], [0.07703244686126709, 0.010912730358541012, -0.0025382807943969965, 0.13536803424358368, 0.011166510172188282, -0.051368676126003265, 0.03484901413321495, -0.007058049086481333, -0.07548370212316513, 0.05787172541022301, 0.025084272027015686, 0.09680552035570145, 0.0767996609210968, -0.0842335894703865, 0.11152151972055435, -0.10798794031143188, -0.06855948269367218, 0.10496332496404648, -0.012348465621471405, -0.03619224205613136, 0.00969042256474495, -0.049384184181690216, -0.08822169899940491, -0.005018976051360369, -0.11862388253211975, -0.013958481140434742, 0.16124163568019867, 0.09553629904985428, -0.01846039853990078, -0.25751733779907227, 0.049572158604860306, 0.04676765203475952, 0.02465358003973961, -0.11819683760404587, -0.08391109853982925, -0.004166423808783293, -0.11022503674030304, -0.025215230882167816, 0.11607149988412857, 0.09214329719543457, 0.0001498670462751761, -0.24565672874450684, -0.2120623141527176, -0.2483939379453659, 0.05242902413010597, -0.12414504587650299, 0.0839301273226738, 0.00042847596341744065, -0.20188666880130768, 0.09018222987651825, 0.04916888475418091, 0.02222905121743679, 0.007667513098567724, 0.06218665465712547, 0.09398093819618225, 0.08295724540948868, 0.013431202620267868, 0.1335885226726532, -0.026508565992116928, 0.10883143544197083, 0.0369110070168972, 0.026153920218348503, -0.03616269677877426, 0.0817248523235321, -0.1524779498577118, -0.08480712026357651, -0.011450955644249916, -0.024333007633686066, -0.07233504951000214, 0.044859033077955246, -0.03363563492894173, -0.13470932841300964, -0.05387512594461441, 0.015822559595108032, -0.05121001973748207, -0.004705582279711962, -0.06390613317489624, -0.09001074731349945, 0.024134686216711998, -0.03800296410918236, 0.025073617696762085, 0.10247693210840225, 0.016316093504428864, 0.0947258323431015, -0.28874704241752625, 0.0019727556500583887, -0.12227907031774521, 0.019501270726323128, -0.007626434322446585, -0.27554652094841003, -0.04903046786785126, -0.06586897373199463, 0.100272998213768, 0.05768413469195366, 0.0105226319283247, 0.05744875967502594, 0.024602670222520828, -0.04274928569793701, -0.08057000488042831, 0.06377977877855301, 0.03983679786324501, 0.04490455240011215, -9.323142876382917e-05, 0.0892399251461029, 0.12085885554552078, 0.049723222851753235, 0.023811999708414078, 0.09339313954114914, -0.041754718869924545, -0.12204521149396896, 0.09375778585672379, 0.03239835426211357, 0.07078094780445099, 0.05672407150268555, 0.03581450507044792, 0.06523582339286804, -0.027742542326450348, 0.02535576932132244, -0.09325836598873138, -0.05102592334151268, -0.01727992855012417, 0.06087686866521835, -0.00885042641311884, -0.059702325612306595, -0.013883869163691998, 0.044336870312690735, -0.009532985277473927, 0.11333997547626495], [0.06470517814159393, 0.2513542175292969, 0.0018495621625334024, 0.12332774698734283, -0.04152186959981918, 0.04848090186715126, 0.04576829448342323, -0.13050127029418945, 0.021564777940511703, 0.053568001836538315, -0.031319621950387955, 0.1721242219209671, -0.032150086015462875, -0.05153359845280647, 0.008341453038156033, -0.04942631348967552, -0.050397563725709915, -0.03637654334306717, 0.052569370716810226, 0.05591652914881706, -0.024969421327114105, -0.045351218432188034, -0.06712656468153, -0.07222113758325577, -0.276469886302948, -0.0034197058994323015, 0.2103748917579651, 0.024993877857923508, -0.026382572948932648, -0.22702328860759735, -0.08935276418924332, -0.0592789500951767, -0.03695197030901909, -0.2299477458000183, 0.06768728047609329, 0.025427915155887604, 0.004874496255069971, 0.04535463824868202, 0.08831961452960968, 0.14527319371700287, -0.05282003805041313, -0.16465720534324646, -0.0981278270483017, -0.2763793170452118, 0.038502439856529236, -0.10134941339492798, -0.043057121336460114, 0.011335048824548721, -0.07839968055486679, -0.031709134578704834, 0.08408582955598831, -0.05424944683909416, -0.07405901700258255, 0.09332015365362167, -0.08723517507314682, -0.01699952781200409, 0.04415988549590111, 0.10864986479282379, -0.0358639732003212, -0.04503249749541283, -0.03017512336373329, -0.07806871831417084, -0.029188787564635277, 0.08028018474578857, -0.13841742277145386, -0.09176551550626755, -0.01954859495162964, 0.035977911204099655, 0.007075569126754999, 0.08038006722927094, -0.016179468482732773, -0.11214339733123779, 0.05706268921494484, 0.09499236196279526, -0.027945097535848618, -0.012767917476594448, -0.07317546755075455, -0.10287043452262878, 0.04708373546600342, -0.07791587710380554, -0.014466704800724983, -0.02136082388460636, 0.0017487977165728807, 0.13939514756202698, -0.3304365277290344, -0.006832230370491743, 0.038415610790252686, 0.025244474411010742, 0.09522421658039093, -0.27789607644081116, 0.06615815311670303, -0.12761160731315613, 0.042675867676734924, -0.05430927127599716, -0.011808524839580059, -0.06464928388595581, -0.014651953242719173, -0.03507449850440025, -0.03869958966970444, 0.0354362428188324, -0.041422899812459946, 0.03768748790025711, 0.07326754927635193, 0.008209633640944958, 0.1796189695596695, -0.059647638350725174, 0.05545220896601677, 0.1360711306333542, 0.025685034692287445, -0.12610790133476257, 0.14376693964004517, 0.10230432450771332, 0.0727338194847107, -0.05895383656024933, -0.07319547981023788, 0.10143349319696426, 0.10489582270383835, 0.05478694289922714, -0.05710318684577942, 0.04096782207489014, -0.1727408617734909, -0.04970908537507057, 0.011509445495903492, -0.03482932224869728, 0.09099356085062027, 0.03753061220049858, -0.026135267689824104, 0.012574520893394947], [-0.05701639875769615, 0.023641357198357582, -0.04673437029123306, -0.1043773889541626, -0.03650101646780968, -0.004423040896654129, -0.04197122901678085, -0.021907873451709747, -0.027175867930054665, -0.006800384260714054, 0.0048906621523201466, -0.09235283732414246, -0.009955495595932007, 0.015350164845585823, 0.013635577633976936, 0.10172291100025177, -0.027856370434165, 0.006351483520120382, 0.020722998306155205, -0.018380744382739067, -0.004105225205421448, 0.020270459353923798, 0.035075847059488297, 0.040280312299728394, 0.020933156833052635, 0.07874724268913269, -0.07765064388513565, -0.03774229809641838, 0.0289852786809206, 0.1332436054944992, -0.0587007999420166, -0.05707839876413345, 0.011063952930271626, 0.16970251500606537, 0.013923577032983303, 0.04499352350831032, -0.003712462028488517, -0.019610323011875153, -0.05252256989479065, -0.07035983353853226, 0.01721695251762867, 0.1684468388557434, 0.004215430933982134, 0.05320894718170166, -0.10123427212238312, 0.09402478486299515, -0.059180084615945816, -0.03873519226908684, 0.024254990741610527, -0.02065744437277317, 0.05340445041656494, -0.027767179533839226, 0.082756906747818, -0.06249744072556496, -0.04574811831116676, -0.05373021960258484, 0.04281070455908775, 0.05373166501522064, -0.026109948754310608, 0.0497770793735981, 0.046911630779504776, -0.06755970418453217, 0.02916467934846878, -0.0610930509865284, 0.06510325521230698, -0.056168146431446075, 0.00647377222776413, -0.014640522189438343, -0.02512805536389351, -0.035822682082653046, -0.06184373050928116, -0.02620922029018402, 0.04791479557752609, -0.03655568137764931, 0.03837930038571358, -0.0943399965763092, 0.02805701270699501, -0.06931204348802567, -0.030986648052930832, 0.05634808540344238, -0.10563123971223831, 0.05823102220892906, -0.007061258424073458, 0.04929906502366066, 0.08601778000593185, 0.07861555367708206, 0.10079268366098404, -0.0013028299435973167, 0.005967271979898214, 0.1162060797214508, -0.10478651523590088, 0.07545868307352066, -0.13747155666351318, 0.056326523423194885, -0.07334335148334503, -0.05536878481507301, 0.032814331352710724, -0.059050656855106354, 0.1014748364686966, 0.033150337636470795, 0.06399525701999664, -0.12139721214771271, 0.028738990426063538, -0.04904015734791756, -0.03751129284501076, -0.12244357913732529, 0.0679066926240921, -0.039817821234464645, -0.06555228680372238, -0.10310982912778854, 0.029807990416884422, -0.004746115766465664, 0.09390084445476532, -0.023143431171774864, 0.008766881190240383, -0.03440359607338905, -0.07784814387559891, -0.05862179398536682, -0.04674667492508888, 0.09134072810411453, -0.08112841844558716, 0.03143508359789848, -0.049338117241859436, 0.08151671290397644, 0.05205192789435387, -0.024063145741820335, 0.05605313926935196, -0.018103186041116714], [-0.07315567880868912, 0.1442885398864746, 0.04798733443021774, 0.09267713129520416, -0.11986422538757324, 0.06907051801681519, 0.052934203296899796, 0.05014625936746597, 0.0361226424574852, -0.046350304037332535, 0.06695938855409622, 0.13216674327850342, -0.026662815362215042, -0.008244147524237633, 0.002205569762736559, 0.06406669318675995, 0.045911096036434174, 0.06877423077821732, -0.04964396357536316, -0.022485990077257156, -0.030197376385331154, 0.04758668690919876, -0.0070555806159973145, -0.06189229339361191, -0.10511717200279236, -0.06776934862136841, -0.014729846268892288, 0.09664388000965118, -0.05186561495065689, -0.03176332637667656, -0.01613592356443405, -0.03975098580121994, -0.018386267125606537, -0.008426905609667301, -0.010030369274318218, 0.05835841968655586, 0.041036613285541534, 0.06938187777996063, -0.04148353263735771, -0.02983090654015541, -0.06613625586032867, -0.09760086983442307, -0.05639990419149399, -0.10693211108446121, 0.09540113061666489, 0.02883022464811802, -0.05912622809410095, -0.048308707773685455, 0.04619436711072922, -0.031683072447776794, 0.046910353004932404, -0.1415242999792099, -0.014950091950595379, -0.03450038284063339, -0.07393615692853928, 0.04438300430774689, 0.0423668809235096, -0.10503935813903809, -0.07685969769954681, -0.09523575752973557, -0.009674706496298313, -0.061030108481645584, 0.08691716939210892, -0.16074098646640778, -0.1009761169552803, -0.06420266628265381, 0.037163205444812775, -0.020315537229180336, -0.021131163462996483, 0.08009740710258484, -0.08171672374010086, 0.027040181681513786, -0.030025867745280266, -0.016787301748991013, -0.12158475816249847, -0.1185062825679779, -0.07154963910579681, 0.027818091213703156, -0.04179588705301285, 0.045931268483400345, -0.05986764654517174, -0.07947935909032822, 0.0034135340247303247, 0.11965906620025635, -0.1556149274110794, 0.04719482734799385, 0.012724678963422775, 0.06461642682552338, 0.0788831114768982, -0.04642917588353157, -0.03398723900318146, -0.08054567873477936, 0.045397866517305374, 0.022973187267780304, 0.02242208458483219, 0.02715638093650341, -0.05866723880171776, 0.03272215276956558, 0.00029952029581181705, -0.06043427065014839, -0.08883170783519745, -0.07278377562761307, 0.019719194620847702, -0.08299640566110611, 0.04649451747536659, -0.006317686755210161, -0.04469152167439461, 0.02129022590816021, -0.03620575740933418, -0.023608462885022163, 0.10503149777650833, -0.04270784556865692, 0.07556410878896713, -0.007881749421358109, -0.08899124711751938, -0.022861847653985023, 0.02960667945444584, 0.010512759909033775, -0.0008060068939812481, -0.03969258815050125, -0.023628830909729004, -0.026584554463624954, -0.1263868361711502, 0.005560142919421196, -0.021007338538765907, -0.03380192443728447, -0.12030091136693954, -0.11570754647254944], [0.09590921550989151, -0.30968865752220154, 0.08243914693593979, -0.09544890373945236, 0.02635965496301651, 0.034011732786893845, -0.026647206395864487, -0.0002502144780009985, 0.07622366398572922, -0.05237715318799019, -0.052611757069826126, -0.06781002134084702, -0.02491370216012001, 0.011725995689630508, 0.09389770776033401, -0.02528730221092701, -0.029710713773965836, 0.03140850365161896, -0.023644527420401573, -0.033933963626623154, -0.052480243146419525, -0.039877455681562424, 0.12583692371845245, 0.012663071975111961, -0.053003545850515366, -0.00636800704523921, -0.23225094377994537, 0.07512379437685013, -0.0006288617150858045, -0.11860693991184235, 0.0652044489979744, -0.01591644249856472, 0.0430978424847126, -0.019903279840946198, 0.03908376768231392, 0.06735196709632874, -0.06741154938936234, 0.03549612686038017, -0.06112201511859894, -0.0542091429233551, 0.06644471734762192, 0.07187450677156448, 0.03943418711423874, -0.10988593846559525, 0.011493872851133347, -0.02813427709043026, 0.033380258828401566, 0.013324207626283169, -0.15188121795654297, 0.12001194804906845, 0.01957550458610058, 0.09811103343963623, 0.05426602065563202, 0.15146702527999878, 0.07738734781742096, 0.09242554754018784, -0.07706521451473236, 0.06442346423864365, 0.036455221474170685, 0.1491243839263916, -0.04704432934522629, -0.0276650357991457, -0.012439190410077572, 0.1484811156988144, -0.06730084866285324, 0.019241835922002792, -0.0006493832916021347, 0.05219434201717377, 0.002996542025357485, -0.010696200653910637, 0.03995119035243988, 0.06315073370933533, -0.06715592741966248, -0.049177367240190506, 0.08815190941095352, -0.043535929173231125, 0.05094929784536362, 0.035248979926109314, 0.024400195106863976, -0.036842748522758484, 0.011264318600296974, -0.04118972644209862, -0.062187448143959045, -0.019229648634791374, -0.0383550263941288, -0.0771591067314148, -0.018464447930455208, -0.011705602519214153, -0.012598688714206219, -0.2024221271276474, 0.0038792474661022425, 0.037657637149095535, 0.10156606137752533, 0.10335234552621841, 0.04691116511821747, 0.03173429146409035, 0.07498864829540253, -0.058314383029937744, 0.0202608834952116, -0.03994445130228996, 0.16704656183719635, -0.07195070385932922, 0.029122937470674515, -0.026281945407390594, -0.1311388909816742, 0.051344938576221466, 0.06105421110987663, -0.10090789198875427, 0.08195530623197556, -0.01632845401763916, -0.12815414369106293, 0.01685631088912487, -0.05437590926885605, -0.057741373777389526, -0.01822742074728012, -0.04847443848848343, 0.02721230871975422, 0.0821341797709465, 0.06147829070687294, -0.004275929182767868, -0.01405734196305275, -0.03399438038468361, 0.12828095257282257, -0.0801500603556633, -0.02130204252898693, -0.0776677280664444, 0.020662536844611168, 0.0662260428071022], [-0.0373954139649868, 0.04494822025299072, -0.009431101381778717, -0.009960192255675793, -0.016535339877009392, -0.058497145771980286, 0.02783924713730812, 0.0622427873313427, 0.06528062373399734, -0.08136651664972305, -0.06933463364839554, -0.01752227358520031, 0.009313116781413555, 0.06227795034646988, 0.11443330347537994, 0.03656705841422081, -0.07274508476257324, -0.02327001467347145, 0.042274024337530136, 0.04175204783678055, -0.05223986878991127, -0.016302743926644325, -0.08703803271055222, -0.03749215230345726, 0.08712261915206909, -0.02885008417069912, 0.07289401441812515, -0.11252851784229279, 0.0710425078868866, 0.0877046212553978, 0.0711478665471077, 0.02017592266201973, 0.00036704714875668287, -0.036694180220365524, -0.029200395569205284, -0.0889061912894249, 0.06298325210809708, -0.016524488106369972, 0.009614633396267891, -0.11415678262710571, 0.038250382989645004, -0.009832499548792839, -0.062259379774332047, 0.04908544942736626, -0.12037346512079239, -0.0010399500606581569, -0.09637174010276794, 0.06832868605852127, 0.010307914577424526, 0.033139418810606, 0.04738101735711098, -0.11319127678871155, 0.07414669543504715, -0.0029166683088988066, -0.06728772073984146, -0.0026584812439978123, 0.04246968403458595, 0.011930054053664207, 0.07760076969861984, -0.13283781707286835, -0.06984500586986542, -0.07265140116214752, -0.02191111259162426, -0.08384408056735992, -0.020374372601509094, 0.036185722798109055, -0.07280425727367401, -0.06409072875976562, -0.0534534715116024, -0.0426449216902256, 0.10225698351860046, 0.024859286844730377, -0.012543032877147198, -0.05576876923441887, -0.06664810329675674, 0.006002443376928568, 0.061409734189510345, 0.052114829421043396, 0.0519770123064518, 0.018964722752571106, -0.06705163419246674, -0.008038569241762161, 0.08538053184747696, -0.08723755925893784, 0.0955929085612297, -0.006367691792547703, 0.08749683201313019, 0.063870869576931, -0.017201906070113182, -0.032992612570524216, -0.0015846347669139504, -0.1022278442978859, -0.05576207861304283, 0.02289447747170925, 0.03298158198595047, -0.020162036642432213, -0.07471054047346115, -0.07119747251272202, -0.0748770534992218, -0.0029257850255817175, -0.11012536287307739, -0.013468298129737377, -0.026682911440730095, -0.05445185303688049, 0.11134447157382965, 0.015156036242842674, 0.07526221871376038, 0.059031493961811066, -0.061181627213954926, -0.03530304878950119, -0.0699193999171257, 0.06957360357046127, 0.05633924901485443, 0.05704386904835701, -0.06488196551799774, -0.06070954352617264, 0.055622171610593796, -0.09271174669265747, -0.04413802549242973, 0.048417117446660995, -0.052457697689533234, -0.010090162046253681, 0.04677000641822815, 0.07731550931930542, -0.02426215447485447, -0.0635131374001503, 0.040478482842445374, 0.10313216596841812], [-0.08257918059825897, -0.18295709788799286, -0.08259929716587067, -0.061108946800231934, 0.019556468352675438, 0.06208210438489914, 0.02174978330731392, -0.12176463752985, -0.04400734230875969, 0.019245820119976997, 0.015549080446362495, -0.09305845201015472, -0.026934072375297546, 0.10245899856090546, -0.09910757094621658, -0.049007926136255264, 0.045023225247859955, -0.07375583797693253, 0.03459479659795761, -0.031238658353686333, 0.006814763881266117, -0.065148264169693, 0.0611414909362793, 0.0789002776145935, -0.02119918167591095, 0.02439967729151249, -0.15320521593093872, -0.06930118054151535, -0.01678246445953846, -0.011589828878641129, 0.0037415961269289255, 0.04479808360338211, -0.0038436409085989, 0.04461095482110977, -0.03722871094942093, 0.039203815162181854, -0.10156135261058807, 0.03711298480629921, 0.010313528589904308, -0.014611107297241688, 0.08022035658359528, 0.0588364452123642, -0.015428336337208748, -0.018426837399601936, -0.09039518982172012, 0.057195547968149185, 0.02905619516968727, -0.04608258232474327, 0.014333011582493782, -0.05873260647058487, 0.0895373672246933, -0.023142419755458832, 0.09544430673122406, 0.059993911534547806, 0.03786446154117584, 0.04420244321227074, 0.05049131438136101, 0.021957481279969215, -0.08875145763158798, -0.022086478769779205, -0.025535568594932556, 0.028065871447324753, -0.006185187492519617, 0.05688382312655449, 0.02108442224562168, 0.03321383148431778, 0.02590048313140869, -0.03201861307024956, 0.06193195655941963, -0.008692522533237934, 0.09881827235221863, 0.016905687749385834, 0.012246525846421719, -0.09111315757036209, 0.07219817489385605, -0.04388801008462906, 0.08442286401987076, -0.09499411284923553, -0.09346475452184677, 0.006727605126798153, -0.07619409263134003, -0.013899517245590687, 0.02222493849694729, -0.12550675868988037, 0.16794873774051666, 0.08086831867694855, -0.05891606956720352, -0.05442946031689644, 0.06704504787921906, -0.032215431332588196, -0.0012745315907523036, 0.1838892251253128, 0.011742007918655872, -0.06800610572099686, 0.0010975273326039314, -0.05289207771420479, -0.05915611982345581, -0.06146353483200073, 0.03705913946032524, 0.027762314304709435, -0.011737512424588203, -0.01891082525253296, 0.09347384423017502, 0.052416421473026276, -0.1331378072500229, -0.061065856367349625, 0.03751109912991524, 0.005633828695863485, -0.0846351683139801, -0.0901498943567276, -0.03516298532485962, 0.10700783878564835, -0.06711293756961823, -0.05839065462350845, -0.04549724608659744, -0.10049421340227127, -0.06735645234584808, 0.06186880171298981, 0.08816535770893097, -0.046471334993839264, -0.0041760955937206745, -0.09205810725688934, 0.01616811566054821, -0.04487896338105202, -0.06701406836509705, -0.018797200173139572, -0.0031792561057955027, 0.038492489606142044], [-0.02218570001423359, -0.0491536408662796, 0.09718839824199677, 0.024329353123903275, 0.024237895384430885, 0.04300845414400101, 0.017926612868905067, -0.03219897300004959, 0.06693221628665924, -0.013051803223788738, 0.07706137001514435, 0.05315938964486122, -0.027874236926436424, 0.05287722498178482, 0.07711918652057648, 0.01562122255563736, -0.05647487938404083, 0.11035876721143723, 0.10929562896490097, -0.07907827943563461, -0.11188829690217972, -0.010736729018390179, -0.03712216019630432, -0.0025748445186764, -0.0939861536026001, -0.02465018257498741, 0.04381377995014191, 0.044618453830480576, -0.04793783649802208, -0.23514890670776367, -0.00040377184632234275, -0.05822509527206421, 0.025401825085282326, -0.0828809142112732, -0.05780071020126343, 0.042127825319767, -0.024976400658488274, 0.03940020874142647, 0.08150696009397507, -0.049518290907144547, -0.08465397357940674, -0.14839376509189606, -0.13373219966888428, -0.17145195603370667, 0.06139127537608147, -0.09083198755979538, 0.034960415214300156, 0.03979310020804405, -0.16648465394973755, -0.031745824962854385, -0.0033353958278894424, 0.1679965704679489, 0.051458120346069336, 0.274142324924469, 0.131790891289711, -0.06682172417640686, 0.05364963039755821, 0.08209695667028427, -0.0420612208545208, 0.22633135318756104, 0.0015054127434268594, 0.07583837956190109, -0.08059598505496979, 0.21842212975025177, -0.02234395407140255, 0.015014044009149075, 0.11171887069940567, -0.005889780353754759, -0.03473725542426109, -0.0076477909460663795, 0.019333096221089363, -0.08479928970336914, 0.03363034129142761, -0.031675562262535095, -0.03176926076412201, 0.03735632076859474, -0.09532689303159714, -0.12465541064739227, 0.04694075509905815, 0.0006100917817093432, 0.022732609882950783, 0.03629327937960625, -0.09803152084350586, -0.06827083230018616, -0.07860992848873138, -0.08435579389333725, -0.013603105209767818, 0.049264710396528244, 0.04705876111984253, -0.29903385043144226, -0.002310899319127202, -0.11520016193389893, 0.09866882860660553, -0.07755184173583984, -0.06837193667888641, -0.01954920031130314, 0.09210573881864548, 0.07433871924877167, 0.029261458665132523, 0.08259422332048416, 0.09378991276025772, -0.054595209658145905, -0.07692432403564453, 0.0947810560464859, -0.02269497513771057, 0.04471400007605553, -0.0870540663599968, 0.015843870118260384, -0.03359406068921089, -0.051742903888225555, 0.02379481866955757, -0.019264912232756615, -0.09791911393404007, 0.07754447311162949, 0.035718485713005066, 0.06849413365125656, 0.07958978414535522, 0.020988011732697487, 0.035356391221284866, 0.03681906685233116, 0.013202045112848282, 0.06565525382757187, 0.10398218780755997, -0.05947084724903107, -0.017806537449359894, 0.019608017057180405, 0.11881454288959503, 0.04720882698893547], [-0.07484561949968338, 0.046235062181949615, 0.06050556153059006, -0.012156116776168346, 0.03949771076440811, -0.013587934896349907, -0.08353089541196823, -0.03375217318534851, -0.03347259759902954, -0.0422825925052166, 0.03837018087506294, 0.09127023071050644, 0.015646917745471, 0.05466996133327484, -0.07484184950590134, 0.013625768013298512, -0.010053698904812336, -0.05336267873644829, 0.017719758674502373, 0.010235861875116825, -0.006376141682267189, 0.032280437648296356, 0.055855851620435715, 0.07230164110660553, 0.05010468140244484, -0.002473454223945737, 0.00670534186065197, -0.061406493186950684, -0.07066982984542847, 0.019391100853681564, -0.07484119385480881, -0.054929155856370926, -0.0701688677072525, 0.11620589345693588, -0.04576029255986214, -0.008614137768745422, -0.03451075777411461, 0.07707099616527557, 0.053930312395095825, -0.09799320250749588, 0.08638408780097961, -0.02556557022035122, 0.03051634319126606, 0.10410811752080917, 0.0394231453537941, -0.04722435027360916, -0.06782446056604385, 0.03940422087907791, 0.04226010665297508, -0.048386380076408386, -0.032273199409246445, -0.09346233308315277, 0.03542898967862129, -0.03303026407957077, 0.03642315790057182, -0.02706390619277954, -0.08448241651058197, -0.07659187912940979, -0.051278628408908844, -0.06967678666114807, 0.04159548506140709, -0.06151888146996498, 0.004039228428155184, -0.1320594698190689, -0.05294691026210785, -0.05406484752893448, -0.02588697522878647, -0.04575272649526596, 0.01534923817962408, 0.052200570702552795, 0.06648632884025574, 0.026337679475545883, -0.005883203353732824, -0.02587650716304779, 0.07983744144439697, -0.03803126513957977, 0.06405030190944672, -0.13651958107948303, -0.0651482567191124, 0.02243829146027565, -0.028272252529859543, 0.010694311000406742, 0.06639055162668228, 0.026036957278847694, 0.1189989298582077, -0.06514862924814224, -0.05561221390962601, -0.013149159960448742, -0.024916522204875946, -0.0002878934610635042, -0.004957966972142458, 0.0395575612783432, -0.11778537184000015, 0.05802806839346886, 0.03333457559347153, 0.05130865052342415, 0.023364240303635597, -0.02358078397810459, 0.03378815948963165, -0.05021458864212036, -0.08646787703037262, 0.07746723294258118, 0.0741601437330246, -0.06536094844341278, 0.13973495364189148, -0.017660917714238167, 0.021797191351652145, 0.07538958638906479, 0.0072610522620379925, 0.001679302309639752, 0.05753645673394203, -0.023428326472640038, -0.03205540403723717, -0.03938092663884163, 0.07805005460977554, 0.04498926177620888, -0.042058881372213364, 0.0027625220827758312, 0.006536693312227726, -0.05133669823408127, 0.06990557909011841, -0.0679670199751854, 0.002835483057424426, -0.022882940247654915, -0.03535056859254837, 0.0831441730260849, -0.00110777432564646, 0.045935455709695816], [-0.07551953196525574, -0.09007319808006287, 0.001700574648566544, 0.011401491239666939, -0.03190978616476059, -0.026793349534273148, -0.0863582193851471, 0.0819174125790596, 0.045713670551776886, 0.019296035170555115, 0.05601579323410988, -0.0102312620729208, 0.09741490334272385, 0.04939603433012962, 0.005280460696667433, 0.05634472519159317, -0.06477127969264984, -0.003135036677122116, 0.004997525364160538, -0.06119362264871597, -0.004199100658297539, -0.07603216171264648, -0.0648990273475647, 0.07340161502361298, 0.18502916395664215, 0.0028853712137788534, -0.04169885814189911, -0.0859396681189537, 0.03151724860072136, 0.11160445958375931, -0.023169126361608505, -0.05076686292886734, 0.0726323276758194, 0.14433038234710693, -0.03214849531650543, 0.008347561582922935, -0.11536208540201187, 0.017759399488568306, 0.04993043094873428, -0.03980768844485283, 0.03970092162489891, 0.057706691324710846, 0.06856728345155716, 0.1619911640882492, -0.07955718040466309, -0.028278784826397896, 0.042902130633592606, 0.04223090410232544, 0.09842894226312637, -0.09511145204305649, 0.0648980438709259, -0.027408864349126816, 0.04440077021718025, -0.010629462078213692, -0.09198358654975891, 0.013640662655234337, -0.054210320115089417, 0.04948362335562706, 0.021841200068593025, -0.007688087411224842, -0.04616319760680199, 0.025844376534223557, -0.028942953795194626, 0.014597037807106972, 0.12676139175891876, -0.0593053437769413, -0.05557394027709961, 0.011298621073365211, 0.034048065543174744, 0.022892281413078308, 0.10434316843748093, 0.003926052246242762, 0.037223465740680695, 0.03329620882868767, -0.021667301654815674, 0.029913971200585365, 0.07963807880878448, 0.006941757630556822, -0.038101524114608765, 0.1015462875366211, -0.04119157791137695, 0.006992138922214508, 0.03960103541612625, -0.009197818115353584, 0.07823854684829712, 0.02666369453072548, -0.0290092620998621, 0.06420689076185226, 0.04219399392604828, 0.044004399329423904, -0.02575940266251564, 0.05576956272125244, -0.008436496369540691, 0.07266605645418167, 0.032940130680799484, 0.010337750427424908, 0.02830653265118599, -0.09337598085403442, 0.07799627631902695, -0.03175915405154228, 0.034413713961839676, 0.02441396564245224, 0.0180305615067482, 0.04905396327376366, -0.11455317586660385, 0.00523727759718895, 0.055894635617733, -0.0700768306851387, 0.021693488582968712, -0.07546781003475189, -0.09435433149337769, 0.06067145615816116, 0.05505486950278282, -0.08712296932935715, 0.0160905160009861, -0.026622900739312172, 0.04917217046022415, -0.08258438110351562, 0.0017803555820137262, -0.03312351554632187, -0.0362323522567749, -0.020898766815662384, -0.08686719089746475, 0.08229506015777588, -0.057327575981616974, 0.05187457054853439, -0.06740904599428177, -0.0058017754927277565], [-0.07177168875932693, -0.009630784392356873, 0.06319080293178558, 0.05363490432500839, -0.0370594821870327, 0.13646307587623596, -0.08176222443580627, 0.015130673535168171, -0.022196369245648384, -0.08291438221931458, -0.05434948578476906, -0.11767067015171051, 0.02469681203365326, -0.021679634228348732, -0.03373805806040764, 0.09566078335046768, -0.0385054275393486, 0.017854461446404457, -0.025444259867072105, 0.06949163228273392, 0.03615221008658409, 0.045318152755498886, 0.016087733209133148, -0.014130602590739727, 0.07730315625667572, 0.006089005619287491, -0.11956791579723358, 0.07690248638391495, -0.004527829587459564, -0.09043944627046585, 0.022554973140358925, -0.0283479206264019, -0.04384643957018852, -0.01596350222826004, -0.028710195794701576, 0.01073113176971674, 0.018756549805402756, 0.09289082139730453, -0.060934051871299744, -0.008611545898020267, -0.04992980509996414, 0.00029147943132556975, 0.039505548775196075, -0.03519782796502113, 0.06613334268331528, -0.0670829564332962, 0.10192296653985977, 0.03011823631823063, -0.023089304566383362, -0.0194495040923357, 0.04875541850924492, 0.08481881022453308, -0.04186559095978737, 0.03332975506782532, 0.08047913759946823, -0.02700009196996689, -0.0525081530213356, -0.013445373624563217, 4.409308894537389e-05, 0.0035111899487674236, -0.06689775735139847, -0.05926831066608429, 0.03802250698208809, 0.09127411246299744, 0.0709238350391388, -0.0018116380088031292, 0.02177826128900051, -0.05879925936460495, 0.05905728042125702, 0.09497959166765213, 0.06014134734869003, -0.023771794512867928, 0.08154316246509552, -0.07982401549816132, -0.016397805884480476, -0.02789674885571003, -0.07848700881004333, -0.050069618970155716, -0.07546879351139069, 0.03643739968538284, -0.004712169524282217, 0.044246330857276917, -0.010426213964819908, 0.02941792644560337, 0.09193360060453415, 0.0889495313167572, 0.08071490377187729, -0.06633701920509338, -0.050555381923913956, 0.03343094885349274, 0.07355149835348129, -0.021904610097408295, 0.06479042023420334, -0.04570138454437256, 0.08723150938749313, 0.07617027312517166, 0.054650742560625076, 0.040582332760095596, 0.0010897412430495024, 0.06857365369796753, -0.027364280074834824, -0.004839668516069651, -0.010567640885710716, -0.05020144209265709, -0.08875954896211624, 0.07728070765733719, 0.0016717228572815657, -0.07731861621141434, -0.01983577199280262, 0.0067601921036839485, -0.08726686984300613, 0.06491652131080627, -0.06843927502632141, -0.00820900034159422, -0.060477398335933685, -0.09334700554609299, 0.029318107292056084, 0.08383337408304214, 0.09421685338020325, 0.04138911888003349, 0.06268111616373062, -0.03440017253160477, 0.05755866318941116, 0.06310611218214035, -0.0983666181564331, -0.05548369139432907, 0.04777303338050842, 0.021410508081316948], [-0.07517892122268677, 0.03411238268017769, 0.05098729953169823, 0.005656890571117401, -0.024635061621665955, -0.09852073341608047, 0.05921200290322304, -0.04709799960255623, 0.021150996908545494, -0.024081971496343613, 0.019661838188767433, 0.06348125636577606, -0.007077168673276901, -0.00968746654689312, 0.050375983119010925, -0.05971654877066612, 0.021373232826590538, -0.03427176550030708, -0.04394782334566116, 0.06742535531520844, 0.029091816395521164, -0.09501475840806961, 0.056462690234184265, -0.02922750823199749, 0.006134295370429754, -0.01044593658298254, 0.1451769322156906, 0.025089280679821968, 0.004402682185173035, 0.001560391508974135, 0.011156458407640457, -0.06422454863786697, 0.02897360920906067, 0.009979589842259884, 0.00376201793551445, 0.06664998084306717, 0.012431650422513485, -0.03031560592353344, -0.03431474044919014, 0.06060130149126053, -0.02061019465327263, 0.009817013517022133, -0.11379029601812363, -0.07787346094846725, -0.053692854940891266, 0.03773996978998184, 0.0623946338891983, 0.050692442804574966, -0.02026405930519104, -0.10060802102088928, -0.02073620818555355, -0.0852530375123024, 0.09509232640266418, -0.06833235919475555, 0.021310076117515564, 0.052733857184648514, 0.04320842772722244, -0.09282281249761581, -0.033773571252822876, -0.051002055406570435, 0.036714062094688416, -0.029722437262535095, 0.008944063447415829, 0.027403278276324272, 0.0249805748462677, 0.022300783544778824, -0.03267381340265274, 0.04038669541478157, 0.02759368345141411, -0.0038777836598455906, 0.02633766457438469, -0.05961766839027405, 0.022269217297434807, 0.029128996655344963, -0.10749474167823792, -0.07105488330125809, 0.06926322728395462, 0.009980804286897182, -0.019302692264318466, 0.020856626331806183, -0.05902722105383873, 0.051848892122507095, -0.0007611329201608896, -0.013292824849486351, -0.05151031166315079, -0.056812629103660583, -0.011720233596861362, 0.02603103406727314, -0.006338602397590876, 0.023410111665725708, -0.09109805524349213, -0.07736773788928986, -0.038259800523519516, 0.06100113317370415, 0.026082905009388924, -0.08430186659097672, 0.019175752997398376, -0.019811736419796944, 0.09777215123176575, 0.03467882052063942, -0.06263750046491623, 0.06293951719999313, -0.0024035461246967316, -0.034262463450431824, 0.17676877975463867, 0.0814516544342041, 0.04337102547287941, -0.08820955455303192, -0.04860649257898331, 0.05721788853406906, -0.01529285591095686, -0.02541438490152359, -0.04785239323973656, -0.06555512547492981, -0.0637616217136383, 0.01983710192143917, 0.033323969691991806, 0.06624329090118408, 0.07107949256896973, 0.01613304577767849, 0.01790422387421131, 0.03247664123773575, -0.09733675420284271, 0.06521057337522507, -0.07119915634393692, 0.08255863934755325, -0.055915467441082, -0.0008274674764834344], [-0.010043350048363209, 0.23096196353435516, 0.007276950869709253, -0.050885625183582306, -0.005340642295777798, -0.010655629448592663, -0.06596437096595764, -0.018815023824572563, -0.08167262375354767, -0.05537986755371094, -0.01560017466545105, 0.09812713414430618, 0.011237986385822296, -0.010308818891644478, -0.003512740833684802, 0.008362594991922379, -0.06944712996482849, -0.030010400339961052, -0.06484583020210266, -0.04800882562994957, -0.06953874975442886, 0.012772250920534134, -0.10175500810146332, 0.04175703227519989, 0.19091632962226868, -0.05095450580120087, 0.10633306950330734, -0.08571907132863998, 0.014808932319283485, 0.15211807191371918, -0.033442843705415726, 0.024931583553552628, 0.01116823498159647, -0.09376734495162964, -0.0005254888092167675, -0.05808054283261299, -0.00928193237632513, 0.06379032135009766, 0.05075488239526749, -0.058209940791130066, 0.07279369980096817, -0.07502396404743195, -0.011379877105355263, 0.15476171672344208, -0.0056422497145831585, 0.07579140365123749, -0.015316176228225231, 0.03889260068535805, 0.04139067977666855, -0.06262948364019394, -0.0018582631601020694, -0.12905319035053253, -0.06071287393569946, -0.23542779684066772, -0.015683403238654137, 0.05328661948442459, -0.008484631776809692, -0.05126035585999489, -0.11982178688049316, -0.19137194752693176, 0.009243735112249851, -0.005376987624913454, 0.045184459537267685, -0.25219082832336426, 0.15229637920856476, -0.0802428349852562, -0.05459388718008995, -0.06074342876672745, -0.07810787856578827, -0.07205530256032944, -0.07746540009975433, 0.07802310585975647, 0.04209260269999504, -0.019547291100025177, -0.04609811305999756, -0.09570415318012238, -0.07267412543296814, -0.045634012669324875, -0.09745274484157562, 0.06414740532636642, -0.029304809868335724, -0.05697624385356903, -0.08519792556762695, 0.09594983607530594, -0.009534642100334167, -0.057681113481521606, 0.05138783901929855, 0.09242857992649078, -0.03295326605439186, 0.2493479698896408, -0.030173087492585182, -0.03212675452232361, 0.008498760871589184, -0.036825619637966156, 0.061967384070158005, 0.019298063591122627, -0.06791188567876816, -0.06611217558383942, -0.06745750457048416, 0.01895953342318535, -0.18609368801116943, -0.07095935195684433, -0.048454731702804565, -0.1418832391500473, 0.08758620917797089, 0.051785312592983246, 0.06461455672979355, 0.10287457704544067, -0.06507715582847595, -0.06198674812912941, 0.027528194710612297, 0.01960611157119274, -0.027943184599280357, 0.007035891525447369, -0.12331146746873856, 0.025049084797501564, 0.07829245924949646, 0.020359236747026443, 0.073257677257061, -0.057220060378313065, -0.0306401327252388, -0.10461153090000153, -0.06185860559344292, -0.006347797345370054, -0.052790019661188126, -0.07582764327526093, -0.1297072172164917, -0.041602641344070435], [0.006680259481072426, -0.027746031060814857, 0.11154919862747192, 0.1403755396604538, -0.0696944072842598, 0.003283647820353508, 0.07437331974506378, -0.1354040652513504, -0.06930583715438843, 0.09880060702562332, -0.003424049587920308, 0.13422776758670807, -0.0511409230530262, -0.017643196508288383, 0.12031008303165436, -0.09097930788993835, -0.014437580481171608, -0.031200774013996124, 0.024269865825772285, 0.007654867134988308, -0.12869422137737274, 0.024152500554919243, 0.05937653407454491, -0.06856576353311539, -0.231718972325325, -0.03703967481851578, 0.06746824830770493, 0.07389701902866364, -0.13768739998340607, -0.1713651418685913, -0.06484159082174301, 0.003006755141541362, 0.013001454062759876, -0.13075442612171173, -0.06913753598928452, -0.09997853636741638, -0.14307145774364471, -0.08871516585350037, 0.051474157720804214, 0.1263268142938614, -0.09612563997507095, -0.22630690038204193, -0.22949309647083282, -0.2994022071361542, 0.06713030487298965, -0.113214872777462, 0.00669433968141675, 0.012754851952195168, -0.12659184634685516, 0.09141550958156586, 0.023764723911881447, 0.1507912576198578, -0.04842071980237961, 0.1962432563304901, 0.13228170573711395, 0.04801800101995468, -0.0028253968339413404, 0.03127352148294449, -0.060295458883047104, 0.13039234280586243, 0.04631086066365242, 0.0921814888715744, -0.03588511794805527, 0.053588323295116425, -0.06269309669733047, -0.02663283981382847, 0.16143062710762024, 0.006363377906382084, -0.05272277444601059, -0.044208429753780365, -0.012171817943453789, -0.14048127830028534, -0.04137618839740753, 0.0679074302315712, 0.0005433099577203393, 0.07941709458827972, -0.06858848035335541, -0.13531863689422607, -0.03903661668300629, -0.10107485204935074, -0.09157566726207733, 0.08831052482128143, -0.041588347405195236, 0.04575261101126671, -0.1660376787185669, 0.019691934809088707, -0.03987204656004906, -0.06172017380595207, 0.056862808763980865, -0.32289278507232666, 0.09818357229232788, -0.16604828834533691, 0.08821922540664673, -0.0481676384806633, 0.1026238352060318, -0.038155704736709595, 0.011585741303861141, -0.0020648252684623003, -0.08638913184404373, -0.020433900877833366, 0.0664481595158577, -0.004900322295725346, 0.024185258895158768, 0.04652521386742592, 0.14836890995502472, 